tree
version=v4
num_class=1
num_tree_per_iteration=1
label_index=0
max_feature_idx=17
objective=binary sigmoid:1
feature_names=Day Hour Minute RSI1 RSI2 RSI3 RSI4 RSI5 MACD1 MACD_Sig1 MACD2 MACD_Sig2 MACD3 MACD_Sig3 MACD4 MACD_Sig4 MACD5 MACD_Sig5
feature_infos=[1:31] [0:23] [0:55] [0.16260724451858261:97.407729993172239] [0.46476877091365049:90.305353590031743] [0.81257048668453535:84.629808131309758] [1.0541541885163641:81.171848269185247] [2.1529373868508515:71.168447027780786] [-7.3813351085799042:0.66870268107700781] [-1.8938471738957383:0.47673183810464059] [-4.4930950481687262:0.61232775365331804] [-2.0091155412950363:0.73969699542463074] [-2.4532902237736351:1.0854432954534443] [-1.8792371293494388:1.0571616541552955] [-3.4632949819132079:1.0797009407884843] [-4.4972959513590762:1.1354656004458468] [-3.7838898804356802:1.6817272454021008] [-3.633772655066613:1.5791322051871028]
tree_sizes=3063 2995 3313 2896 3329 2368 2787 3303 3017 2810 3212 2683 2995 2781 2867 2444 2474 2997 2902 2782 2770 3024 3221 2802 2713 2692 2782 2131 3329 2603 2714 3211 3114 3318 2986 2472 2143 3155 3316 2831 2671 1825 2783 2680 1941 2714 2803 2444 3091 3141 2999 2748 3111 3348 3239 2157 2493 2015 2027 3172 2371 3344 2035 2996 2805 3134 2461 3272 2561 2845 2873 1953 3032 2261 2361 2573 2892 3121 1952 3058 2552 2921 3121 2127 3225 2254 2248 2582 2808 2480 2825 2554 2993 2367 2485 3134 2562 2911 2383 2668 2491 2459 3242 2596 2573 2879 3030 2561 3334 3357 2671 2702 3162 2847 2879 3329 3214 2791 2900 2386 2673 2880 2254 2365 3111 3020 2565 2713 2373 2784 2266 2128 3047 3339 2802 3026 2805 2707 2031 3281 2459 2925 2554 3314 3009 2943 2353 2237 2856 2977 2338 2904 2592 3337 3338 2276 3235 2402 2782 2842 3041 2868 2905 2391 2242 3136 3045 2584 3352 3206 3325 2817 2898 2721 2807 2494 3252 2392 3107 2782 3123 3013 1932 3011 2583 2509 2262 2781 3310 2359 2699 3024 2358 2249 3370 3148 3312 2863 3087 3380 2496 2563 3113 2361 2891 2730 2809 2271 2890 2373 2579 3197 3134 3176 3165 3352 2593 3230 2574 2350 2924 2868 2452 3016 3137 2768 2458 2712 3223 2689 2679 2905 2772 3248 2581 3333 2868 2873 2464 3103 2690 3340 2591 3318 2985 2687 2276 3257 3325 3302 2467 3003 2497 2359 2478 3180 3262 2179 2577 2673 2016 2365 3104 2909 2582 3167 2811 3104 2144 2916 2681 3102 3399 2662 3192 3303 3324 3114 3200 3055 2017 3047 3225 2031 2912 2659 2027 3173 3384 2951 3238 2690 2679 3372 2584 3343 2467 2569 3351 3177

Tree=0
num_leaves=28
num_cat=0
split_feature=5 4 1 7 15 1 5 17 7 16 17 14 8 5 9 2 2 7 8 6 1 2 12 8 3 2 11
split_gain=3211.58 2937.12 1981.19 1682.42 1997.96 1560.2 1456.38 1148.2 1005.78 1732.67 1256.79 983.911 966.94 891.401 841.018 866.514 800.232 961.428 702.286 677.124 637.857 634.736 716.241 712.855 479.334 260.801 156.544
threshold=61.132196578382541 34.91756971179165 9.5000000000000018 42.524297031742414 -0.4554142146724614 8.5000000000000018 43.183760317352146 0.00071423356475625011 45.989120531231997 -0.64811904060732661 0.0014945463614803001 0.051516842185542054 -0.17123461445738994 70.834340079890339 3.7866849876400009e-05 12.500000000000002 17.500000000000004 54.772578785817636 0.0010656838260483003 34.40114591530714 5.5000000000000009 7.5000000000000009 -0.00018853531541174995 0.0019057675505929502 90.916015388119561 12.500000000000002 0.0040078971522386009
decision_type=2 2 2 2 2 2 2 2 2 2 2 2 2 2 2 2 2 2 2 2 2 2 2 2 2 2 2
left_child=1 6 3 20 -5 13 11 21 10 -10 -4 19 -13 16 25 -16 17 -2 -18 -1 -3 23 -23 -7 -15 -9 -8
right_child=5 2 8 4 -6 7 26 14 9 -11 -12 12 -14 24 15 -17 18 -19 -20 -21 -22 22 -24 -25 -26 -27 -28
leaf_value=0.041210687506269258 0.081805810245816943 0.12755940508897906 0.11380119814687019 -0.016335781075387815 0.11071981236427328 0.040590474635694623 -0.014474488487849949 -0.094430706838810149 -0.050350485671546583 0.093841728558414383 0.017554648941003032 0.036931462697618447 0.16253989003992156 0.093532438609418622 0.11940349334475794 0.073606370553551112 0.1121924124148812 0.17553374668086325 0.043175280335726859 0.080061371382944085 0.25685276207489438 -0.086690408018602658 0.062991421868030542 -0.046955953809014836 -0.057347649754728794 0.029550252828304036 -0.11279538727205131
leaf_weight=4815.4151233546436 1672.9129955619574 593.35840773582458 38637.318024035543 1250.4503952264786 120965.44129248708 5905.6709517464042 288.95883297920227 300.43337082862854 836.11974954605103 252252.97864205763 1406.1050164848566 804.29036948084831 2574.9365060329437 365.81330156326294 6012.4590301811695 13205.473478525877 4542.6703347451985 3164.7777269631624 2182.781659424305 65601.662223145366 1069.0030078142881 324.03101193904877 23829.350293923169 1103.9504499435425 496.12415462732315 389.81005787849426 368.38260388374329
leaf_count=326 132 40 2876 53 8861 467 26 21 37 19716 92 33 151 18 370 855 370 176 114 4897 44 22 1899 65 33 31 19
internal_value=0.0941753 0.0969096 0.100176 0.110779 0.10942 0.0730111 0.0786141 0.0652794 0.0956953 0.0933654 0.110422 0.0799341 0.132644 0.104791 0.0840391 0.0879343 0.112104 0.143122 0.0897925 0.0774046 0.210703 0.053295 0.0609834 0.0268027 0.00668709 -0.0244133 -0.0695748
internal_weight=0 491464 417011 123878 122216 63496.3 74453.6 51071.2 293133 253089 40043.4 73796.3 3379.23 12425.1 19908.2 19217.9 11563.1 4837.69 6725.45 70417.1 1662.36 31163 24153.4 7009.62 861.937 690.243 657.341
internal_count=41744 37171 31719 8998 8914 4573 5452 3730 22721 19753 2968 5407 184 843 1277 1225 792 308 484 5223 84 2453 1921 532 51 52 45
is_linear=0
shrinkage=1


Tree=1
num_leaves=27
num_cat=0
split_feature=4 4 1 8 15 1 6 12 14 5 17 12 5 13 5 7 16 17 3 15 13 12 9 3 3 0
split_gain=2718.74 2418.41 1540.35 1585.05 1784.29 1349.32 1263.27 1076.9 1156.65 978.86 775.549 1151.57 1519.71 837.633 743.738 740.36 1357.24 1070.32 687.09 622.428 573.89 632.115 562.325 387.267 353.935 77.5787
threshold=65.662299382600381 35.085414951640622 9.5000000000000018 -0.096958043355698437 -0.4554142146724614 8.5000000000000018 54.126783639448028 0.072173681713572066 0.051516842185542054 41.689868913192598 -0.0032748487682797999 0.0024332506769106504 62.082701731547949 -0.0011342354225623498 70.834340079890339 45.989120531231997 -0.00028473912450459993 0.0014945463614803001 26.300733178881654 0.00076814424665060013 -0.00025501566585554993 -0.00011603718251539998 0.0092472914148911522 90.916015388119561 36.627801910177332 13.500000000000002
decision_type=2 2 2 2 2 2 2 2 2 2 2 2 2 2 2 2 2 2 2 2 2 2 2 2 2 2
left_child=1 7 3 24 -5 6 25 8 9 -1 20 13 -13 -12 19 17 -17 -4 -10 -8 21 -7 -22 -16 -3 -2
right_child=5 2 15 4 -6 10 14 -9 18 -11 11 12 -14 -15 23 16 -18 -19 -20 -21 22 -23 -24 -25 -26 -27
leaf_value=-0.013233803724225888 -0.18452428470390458 0.070615744918996484 0.017690268165357743 -0.11168504316337245 0.015102842237737828 -0.10105175778837117 -0.0017049840819379888 -0.13759814326797801 0.024962751846634643 -0.08426003939344634 -0.1385259654152482 0.13142623384679536 -0.0042490857236185675 -0.02829321686164403 -0.00057851848551927179 -0.01042332212344828 0.0049882647709538833 -0.07150019889449391 0.14709978409796273 0.040027333645364094 -0.12064153022445956 0.015014574266305645 -0.047156450699556512 -0.13615555204623869 0.16264479494259598 -0.10638593158383254
leaf_weight=70840.232925316319 274.05923211574554 945.23103618621826 37891.088724128902 1120.8063542842865 114797.21830983087 663.30508316680789 8007.4152583405375 695.51002359390259 2633.5545493066311 1995.0073925256729 703.57238712906837 921.26961529254913 7948.559477776289 34072.600108006969 365.82433104515076 86336.576088912785 168992.17438803613 1395.017509482801 558.22565664350986 6454.8981667160988 1950.9986224770546 1603.6978889554739 2233.3855688869953 496.81640529632568 749.080162525177 236.89077663421631
leaf_count=5231 21 28 2823 50 8354 48 691 35 157 172 41 38 398 2845 18 6295 13569 91 22 385 103 93 161 33 19 23
internal_value=0 0.00257156 0.00560563 0.0152804 0.0138769 -0.0190606 0.00638369 -0.0137304 -0.0125972 -0.0151793 -0.0271036 -0.0223201 0.00984291 -0.0305234 0.0115409 0.00174337 -0.000222992 0.0145232 0.0463239 0.0169212 -0.0594662 -0.0189454 -0.0814194 -0.0786607 0.111303 -0.148297
internal_weight=0 488950 412227 117612 115918 65933.3 15835.9 76722.5 76027 72835.2 50097.4 43646 8869.83 34776.2 15325 294615 255329 39286.1 3191.78 14462.3 6451.39 2267 4184.38 862.641 1694.31 510.95
internal_count=41744 36846 31229 8451 8404 4898 1171 5617 5582 5403 3727 3322 436 2886 1127 22778 19864 2914 179 1076 405 141 264 51 47 44
is_linear=0
shrinkage=0.1


Tree=2
num_leaves=30
num_cat=0
split_feature=5 3 0 7 4 17 0 1 7 6 1 11 5 9 15 7 11 2 10 4 15 0 1 7 17 8 14 11 4
split_gain=2249.27 2049.25 2045.16 2052.9 1770.64 1495.5 2043.61 1914.03 1464.7 1102.07 1092.45 1119.63 1071.1 1080.04 1021.12 979.044 843.949 816.392 1511.48 801.2 766.737 727.477 936.685 771.421 911.871 747.355 691.805 652.926 542.321
threshold=61.132196578382541 30.159105303531536 8.5000000000000018 41.163356110592417 58.830156190183089 -0.24159392649040887 10.500000000000002 7.5000000000000009 55.595519009951495 59.623671894082605 6.5000000000000009 0.00068801514433645017 43.264250535439338 0.00024090276949075004 -0.056940058422521846 56.553861037363326 0.0010454048650391501 22.500000000000004 0.0014498231687753503 69.376427992895387 0.0013199213202568503 1.5000000000000002 13.500000000000002 50.732238465318886 -0.0032748487682797999 0.00080833939201235014 0.0017953964643490502 -0.0019583267098378996 67.5480150035512
decision_type=2 2 2 2 2 2 2 2 2 2 2 2 2 2 2 2 2 2 2 2 2 2 2 2 2 2 2 2 2
left_child=1 2 12 27 5 6 -3 -7 -5 15 11 19 13 -1 -14 -6 -11 20 -19 28 -13 22 -12 25 -25 -23 -21 -4 -2
right_child=10 4 3 8 9 7 -8 -9 -10 16 21 17 14 -15 -16 -17 -18 18 -20 26 -22 23 -24 24 -26 -27 -28 -29 -30
leaf_value=-0.025213377035883801 -0.036014464743334487 0.024248652471067431 -0.14257875392712854 0.0027198924575680306 -0.0035818352818439165 0.031359342602453467 -0.082580456194441182 0.0081608459916762115 -0.17618960180513735 -0.0077146970074715299 -0.066896532551548912 9.7297228313216667e-05 0.061292988110995233 0.095647982261685471 -0.082298232831091944 -0.064385955145481608 0.092141182064493399 0.10593875641557714 -0.060816713666774463 -0.026232855331042155 0.11292390528107787 -0.011922204716771342 0.09089389760730586 -0.068511298276771312 -0.022768327120037957 0.17025502254806094 -0.14213868893862602 -0.047870703616734761 0.10262319363918525
leaf_weight=26127.183421730995 466.43180360645056 3304.3556547872722 1062.1770390272141 87911.679424097762 123322.73175376281 43975.249987732619 3909.0918242633343 185973.98232533783 459.98895883560181 1418.5162066817284 552.89234831929207 851.91026794910431 546.0384179353714 760.91172766685486 5324.180551558733 2706.2224267423153 2098.4981479644775 859.62883949279785 1478.295920483768 2775.602709107101 2055.8003038167953 532.00379492342472 1177.2924995869398 4811.6465330421925 46220.886782543734 390.45533788204193 632.26353240013123 2313.2363776639104 714.20317419618368
leaf_count=1933 51 119 56 6480 9456 3093 186 14832 24 103 47 47 17 35 378 185 108 58 73 225 88 58 82 289 3443 20 39 166 53
internal_value=0 0.00229169 -0.00879313 -0.00113481 0.00605522 0.0111908 -0.0336439 0.0125973 0.00178864 -0.00334669 -0.0177058 0.0129355 -0.030242 -0.0217931 -0.0689416 -0.00488748 0.0518663 0.0444931 0.000497411 -0.0231417 0.0798676 -0.0233187 0.0404709 -0.025443 -0.0270812 0.0651891 -0.0477369 -0.0776735 0.0478518
internal_weight=0 491214 124505 91747.1 366709 237163 7213.45 229949 88371.7 129546 63519.3 9834.14 32758.3 26888.1 5870.22 126029 3517.01 5245.64 2337.92 4588.5 2907.71 53685.2 1730.18 51955 51032.5 922.459 3407.87 3375.41 1180.63
internal_count=41744 37171 9089 6726 28082 18230 305 17925 6504 9852 4573 634 2363 1968 395 9641 211 266 131 368 135 3939 129 3810 3732 78 264 222 104
is_linear=0
shrinkage=0.1


Tree=3
num_leaves=26
num_cat=0
split_feature=1 4 3 17 16 0 10 17 5 1 6 15 16 8 3 4 7 3 14 15 8 13 13 2 0
split_gain=1946.05 1984.01 2351.33 1603.37 1776.83 1773.93 1197.27 1187.22 939.936 1978.5 894.682 816.69 797.731 763.401 1968.63 827.945 745.779 669.41 929.72 1326.62 757.314 1048.59 662.107 621.776 545.336
threshold=9.5000000000000018 65.662299382600381 21.254675564826368 0.076027166635856722 0.044070137677891759 29.500000000000004 0.065654443422957315 -0.056927621408820545 45.156613154727829 5.5000000000000009 47.784703091302042 0.1274529699597852 -0.64811904060732661 0.095853868456451566 79.587886332805752 60.710807797269403 54.938558478332517 84.082435773759286 0.22277621777782028 0.0018625636678555502 0.00059942550647915007 6.9455549233450012e-05 -0.0015527880244588499 17.500000000000004 11.500000000000002
decision_type=2 2 2 2 2 2 2 2 2 2 2 2 2 2 2 2 2 2 2 2 2 2 2 2 2
left_child=3 2 6 4 11 8 22 -6 10 -10 -5 12 -1 15 -15 -4 -9 18 19 -3 21 -19 -2 -7 -22
right_child=1 17 13 5 7 23 -8 16 9 -11 -12 -13 -14 14 -16 -17 -18 20 -20 -21 24 -23 -24 -25 -26
leaf_value=-0.060868568453439513 -0.00041628518787798836 -0.024196698566442021 0.0031169195927021709 0.024403561587875388 0.054776748819983283 -0.023706383463808905 0.14705100049979036 -0.10169257607878829 0.093318134979215928 0.0031446473322018515 -0.12020309999773215 0.11923583504101676 0.0078493264090926749 0.011825105592360122 0.18288824835545484 -0.0097613987839183947 0.067626880611180787 -0.063948830990022063 -0.1571042472857091 0.028689865135429489 -0.024936651052634217 0.072868827717593093 -0.039039013824503872 -0.19938800975648011 -0.084739042054548658
leaf_weight=1710.39777302742 5542.0986734554172 29206.517548587173 253003.48231081478 6448.8146592192352 727.88787174224854 419.82508635520935 381.34350776672363 2929.3478900827467 7025.8184465952218 3722.3414110541344 458.25373810529709 651.40547561645508 137210.72502114996 3961.5656621605158 810.35785627365112 62192.399148667231 285.48539185523987 1154.2894638180733 470.63654959201813 5662.6320198252797 2302.4485064931214 1088.3451008498669 22291.085006507114 387.31029975414276 4515.0298806149513
leaf_count=65 283 2190 19627 349 23 21 7 204 290 196 24 17 10648 172 23 4688 20 146 36 288 164 115 1814 23 311
internal_value=0 -0.003802 -0.0012634 0.00922543 0.00565695 0.0369646 -0.0289373 -0.0605458 0.0435923 0.0620889 0.0148095 0.00752708 0.00700327 0.00117686 0.0408747 0.000575854 -0.0866566 -0.0237096 -0.0174925 -0.0156081 -0.0479601 0.00244845 -0.0313485 -0.108009 -0.0645421
internal_weight=0 392582 348182 161978 143515 18462.4 28214.5 3942.72 17655.2 10748.2 6907.07 139573 138921 319968 4771.92 315196 3214.83 44399.9 35339.8 34869.1 9060.11 2242.63 27833.2 807.135 6817.48
internal_count=41744 29864 26614 11880 10977 903 2104 247 859 486 373 10730 10713 24510 195 24315 224 3250 2514 2478 736 261 2097 44 475
is_linear=0
shrinkage=0.1


Tree=4
num_leaves=30
num_cat=0
split_feature=1 5 4 14 14 17 4 3 16 5 13 17 4 8 15 0 11 0 13 7 17 8 11 10 15 10 6 16 16
split_gain=1756.03 1696.57 1643.43 979.186 1220.06 925.835 1253.47 896.624 1604.2 1446.89 1062.15 949.703 808.619 756.257 728.301 689.809 676.21 667.887 699.18 661.188 818.264 598.292 552.301 526.707 506.345 404.347 341.53 266.897 214.69
threshold=1.5000000000000002 61.132196578382541 35.085414951640622 0.19101174922565176 0.051516842185542054 0.11257105290143597 35.947398547772586 57.846252933815521 -0.0005072120060593499 49.499576035462134 -0.00033900515915814995 0.052893293778270754 58.830156190183089 8.1479500535500021e-05 0.050454919065074759 15.500000000000002 -2.3568363792499995e-05 10.500000000000002 -0.00010230025273914998 50.865603203032173 -0.00031291251684419991 0.00038098930198330005 0.045415002082165805 -0.00016916499801829997 -0.00012698757293554998 0.0011602216359499502 62.844230168897504 0.0014135299478683003 0.38085198115093993
decision_type=2 2 2 2 2 2 2 2 2 2 2 2 2 2 2 2 2 2 2 2 2 2 2 2 2 2 2 2 2
left_child=7 2 3 4 -2 12 -7 9 22 10 11 -1 -4 -10 -15 21 17 18 -3 25 -21 -11 23 -9 -12 -18 -19 -17 -5
right_child=1 16 5 28 -6 6 -8 8 13 15 24 -13 -14 14 -16 27 19 26 -20 20 -22 -23 -24 -25 -26 -27 -28 -29 -30
leaf_value=0.066888361052576159 -0.014104554715168383 0.048562419181880145 0.0055257581228824746 -0.073179672331026138 0.053478262828016015 -0.084605952002802839 0.026833673548262924 0.020521468757005484 -0.10957751669078011 -0.018104363004071828 -0.10298333498806847 -0.078903020574599303 -0.0043318732187561755 0.060988696004413138 -0.095711000763686438 0.089142612637853655 0.015062022560064373 -0.069624999460288273 -0.078378025500067727 -0.031734279600616443 -0.0064316944746148907 0.13268874120917282 0.062912800693406032 -0.11356721822140332 0.0003401565953726328 0.13677467246282179 -0.15975471136187386 0.17360977260002655 -0.17835216284478594
leaf_weight=4575.849343970418 70067.952583273873 957.36836355924606 253913.76839360967 398.59876704216003 2777.080151155591 1053.6450597643852 23998.063135400414 363.59492629766464 325.24050557613373 608.18381653726101 659.90321922302246 495.16177341341972 123780.80477290042 3811.6495956927538 321.63010025024414 531.95814811438322 727.37057009339333 1822.3509136028588 793.55566257238388 19804.741327513009 36038.080555502325 463.74881386756897 280.69634056091309 1507.6007276140153 1686.2858077064157 436.89800333976746 546.51321333646774 1260.4626631736755 378.29820036888123
leaf_count=308 5200 58 19998 25 155 66 1154 35 33 44 60 25 9520 273 19 40 72 157 62 1404 2607 22 11 121 159 21 39 36 20
internal_value=0 -0.000993843 0.00101869 -0.0127191 -0.0115281 0.00352995 0.0221467 0.0317512 0.00301824 0.0502247 0.0269126 0.0526525 0.00229514 0.0372422 0.0487951 0.110591 -0.0166777 -0.0558025 -0.00896967 -0.0138503 -0.0154053 0.0471331 -0.0678905 -0.0875122 -0.0287212 0.0607353 -0.0904185 0.148541 -0.124392
internal_weight=0 537495 476368 73621.9 72845 402746 25051.7 16892 6610.41 10281.6 7417.2 5071.01 377695 4458.52 4133.28 2864.35 61126.9 4119.79 1750.92 57007.1 55842.8 1071.93 2151.89 1871.2 2346.19 1164.27 2368.86 1792.42 776.897
internal_count=41744 40558 36138 5400 5355 30738 1220 1186 492 694 552 333 29518 325 292 142 4420 316 120 4104 4011 66 167 156 219 93 196 76 45
is_linear=0
shrinkage=0.1


Tree=5
num_leaves=21
num_cat=0
split_feature=1 8 3 4 14 10 1 0 14 10 7 3 15 13 11 17 12 8 16 6
split_gain=1455.67 1543.58 1425.3 1677.56 1317.73 940.03 851.719 829.619 768.22 718.004 729.878 714.984 705.981 1178.53 553.002 1181.06 606.492 539.695 404.341 379.062
threshold=9.5000000000000018 -0.096958043355698437 21.254675564826368 65.662299382600381 -0.44274754400801436 0.065654443422957315 1.5000000000000002 29.500000000000004 0.00041628009155390003 0.18472890234295389 45.989120531231997 27.041204105512268 -0.15209843273113169 -0.0017383829421896999 0.0014525858298928003 0.00065444012842605012 0.0019763048410856503 -0.17123461445738994 0.11479673126453341 45.190962766429756
decision_type=2 2 2 2 2 2 2 2 2 2 2 2 2 2 2 2 2 2 2 2
left_child=1 11 5 9 -3 12 8 -8 -6 10 -4 17 -2 -14 16 -16 -5 -1 -11 -13
right_child=2 4 3 14 6 -7 7 -9 -10 18 -12 19 13 -15 15 -17 -18 -19 -20 -21
leaf_value=-0.068972090904463643 -0.12538417976202251 -0.12636404784024091 0.010916089550229345 -0.023738757861871164 0.010486369832969944 0.13193546040387108 0.006354106096602777 -0.030250802413195128 0.054536882373795149 0.027229041887561745 -0.0016083578165079155 0.068269417211833924 0.02331662566075186 -0.033567960083035621 -0.028233834320000206 0.029755347961191933 -0.08039884195069108 0.062636617281189452 0.13981662175107931 0.15412589668094612
leaf_weight=465.62416106462479 711.57442998886108 742.48261964321136 56578.004101995379 27940.853753566742 9513.4786344952881 376.89196586608887 134722.04599618167 6489.819251395762 6780.7639827877283 753.40527710318565 261999.30493906327 1019.0706625133753 4334.5836351364851 22797.895407255739 8308.6691848188639 6083.9718054756522 2026.1627314090729 941.8642830401659 553.20173397660255 1038.0564556121826
leaf_count=21 34 35 3997 2334 747 7 10079 483 419 29 20465 37 216 1847 491 308 117 39 19 20
internal_value=0 0.00798883 -0.00328529 -0.00160786 0.00654323 -0.0249356 0.00716975 0.00467182 0.0288178 0.000919344 0.000615932 0.0740177 -0.027059 -0.0244803 -0.0198319 -0.00372099 -0.0275697 0.0190979 0.0748973 0.111594
internal_weight=0 161713 392465 364244 158249 28220.9 157506 141212 16294.2 319884 318577 3464.62 27844.1 27132.5 44359.7 14392.6 29967 1407.49 1306.61 2057.13
internal_count=41744 11880 29864 27760 11763 2104 11728 10562 1166 24510 24462 117 2097 2063 3250 799 2451 60 48 57
is_linear=0
shrinkage=0.1


Tree=6
num_leaves=25
num_cat=0
split_feature=1 9 6 2 5 3 3 14 3 7 15 10 7 17 6 17 6 8 13 2 0 1 11 13
split_gain=1180.37 1311.6 1646.24 1200.03 1207.1 1175.49 1261.12 1062.42 827.025 1008.25 843.863 772.777 739.452 1319.42 1130.54 709.569 640.368 510.487 924.046 477.761 520.739 504.643 302.495 285.501
threshold=9.5000000000000018 -0.014355745970713398 52.971741321512731 27.500000000000004 45.277155657006965 84.082435773759286 21.254675564826368 -0.44274754400801436 31.770315644495145 42.524297031742414 -0.10016078814180902 0.065654443422957315 45.989120531231997 0.0019876464390139004 47.784703091302042 -0.13129549956621958 34.40114591530714 0.00059942550647915007 0.00022195374533485001 47.500000000000007 11.500000000000002 15.500000000000002 5.5317190996500007e-05 0.00030628662095200007
decision_type=2 2 2 2 2 2 2 2 2 2 2 2 2 2 2 2 2 2 2 2 2 2 2 2
left_child=1 2 3 4 -1 6 11 -3 10 -10 -9 16 14 -14 -8 -5 -2 18 22 20 -19 -21 -7 -20
right_child=5 7 -4 15 -6 17 12 8 9 -11 -12 -13 13 -15 -16 -17 -18 19 23 21 -22 -23 -24 -25
leaf_value=0.039673761667598506 -0.075951257469971473 -0.12385530698950227 -0.10636526657212941 -0.057878963240736485 0.11801547671547226 -0.072299946890204969 0.011266341429798226 -0.14249656611504138 0.10719226930361783 0.0080501263890504753 -0.0068336332025085824 0.12118091387167902 -0.0060944279965320525 0.0097405844443526277 -0.14731050740866602 0.024268007981356147 -0.019900566175270359 -0.0214825810107242 0.19330449819429885 -0.054153717146654005 -0.084615241249091616 0.076351080539077493 0.030179170768558479 0.054216369531936939
leaf_weight=6252.2175189554691 2214.463696885854 646.09803915023804 804.29247096180916 1275.6573767215014 2869.4340418279171 1097.3691498786211 56142.146395729855 464.61746610701084 1035.6708693355322 107343.57749535888 34885.539597976953 369.67189979553223 229990.64237917028 68229.962927322835 453.20760834217072 5984.1459373086691 25622.290564918891 1975.8138300664723 188.79116058349609 640.12132388353348 3856.8441136721522 551.64663255214691 390.54667086899281 676.07812607288361
leaf_count=319 154 30 39 54 108 134 3966 30 60 8148 2752 7 19180 3828 30 340 1943 140 21 39 272 34 49 67
internal_value=0 0.00719881 0.0333141 0.040172 0.064318 -0.00295705 -0.00210066 0.00409018 0.00466532 0.00899753 -0.00861669 -0.0224521 -0.000482806 -0.00247153 0.00999648 0.00983354 -0.0243595 -0.0379371 0.00237817 -0.0514404 -0.063229 0.00625446 -0.0454013 0.0845777
internal_weight=0 161561 17185.7 16381.5 9121.65 392400 383022 144376 143729 108379 35350.2 28206.4 354816 298221 56595.4 7259.8 27836.8 9377.21 2352.79 7024.43 5832.66 1191.77 1487.92 864.869
internal_count=41744 11880 860 821 427 29864 29108 11020 10990 8208 2782 2104 27004 23008 3996 394 2097 756 271 485 412 73 183 88
is_linear=0
shrinkage=0.1


Tree=7
num_leaves=30
num_cat=0
split_feature=1 5 3 0 7 17 8 0 5 3 16 5 13 17 3 1 0 2 7 0 1 16 16 7 11 7 15 6 16
split_gain=1101.56 1135.66 1294.41 1680.02 1510.57 960.237 1647.77 1270.62 958.201 763.812 1221.46 1116.45 911.153 787.254 664.976 734.494 579.87 550.979 525.18 595.644 793.469 618.218 538.079 523.047 432.131 458.185 398.998 362.334 219.389
threshold=1.5000000000000002 61.132196578382541 30.159105303531536 8.5000000000000018 41.163356110592417 -0.20339220569573147 0.095853868456451566 10.500000000000002 43.264250535439338 57.846252933815521 -0.0005072120060593499 49.499576035462134 -0.00033900515915814995 0.052893293778270754 71.312455000395076 1.0000000180025095e-35 15.500000000000002 27.500000000000004 50.732238465318886 1.5000000000000002 13.500000000000002 -0.00074479096934899989 -0.0019353707064106499 53.407908412874328 0.045415002082165805 48.081329612934049 -0.00055691768305564989 57.882141148843573 0.0014135299478683003
decision_type=2 2 2 2 2 2 2 2 2 2 2 2 2 2 2 2 2 2 2 2 2 2 2 2 2 2 2 2 2
left_child=9 2 3 8 -5 7 -7 -4 -2 11 24 12 13 -1 17 -16 23 -12 22 20 -20 -21 27 -13 25 -11 -14 -3 -18
right_child=1 18 5 4 -6 6 -8 -9 -10 10 14 16 26 -15 15 -17 28 -19 19 21 -22 -23 -24 -25 -26 -27 -28 -29 -30
leaf_value=0.05906704890972414 -0.019786496028355194 0.028280935817743116 0.014720789531092158 -0.069430920722451162 0.0014012145703652195 0.0042970961328696721 0.071935953455540699 -0.042887159243707992 -0.065162385613225446 -0.012305638934919545 0.029419804994299487 0.085231340896685673 -0.13565798055699979 -0.073544904732302741 -0.017195844967373652 0.09233871841736474 0.078025013882626393 -0.089456047245214221 -0.034838109488708219 -0.042646745813812496 0.093471707202995261 -0.01262056646636682 -0.06428624207903294 -0.066737758702737959 0.053142570387243376 -0.11630926191694642 -0.013444246770471012 0.15942012285791668 0.15551767607355915
leaf_weight=4544.7963491529226 25635.058972282335 419.15753996372223 6344.0868469141424 3120.4407671093941 85684.320370873436 336194.12887176126 3640.6754831373692 9656.3638798892498 5686.0236857235432 647.22616273537278 881.21547885984182 729.30199760198593 307.6090133190155 496.5739256888628 894.42011269927025 1940.0998019464314 524.2232303917408 699.30237632989883 836.15194661915302 7947.6646451372653 1137.773669719696 49973.052642900497 287.23979221284389 328.49057856202126 278.44796943664551 1225.8972239792347 2030.2726953364909 423.62590324878693 1205.3743669986725
leaf_count=308 1880 33 276 205 6330 26461 130 475 381 56 71 41 23 25 82 112 40 60 64 530 80 3652 33 25 11 100 196 28 36
internal_value=0 -0.000782169 0.000864512 -0.00811096 -0.0010877 0.00389453 0.00502172 -0.0200459 -0.028024 0.025272 -0.00131208 0.0424426 0.0220757 0.0460048 0.0287958 0.0577756 0.0963612 -0.023177 -0.0136254 -0.0148997 0.0391199 -0.0167406 0.0539131 0.0380383 -0.0630936 -0.0803726 -0.0295246 0.0941982 0.13203
internal_weight=0 536986 475961 120126 88804.8 355835 339835 16000.5 31321.1 16733.3 6566.61 10166.6 7379.25 5041.37 4415.04 2834.52 2787.39 1580.52 61024.7 59894.6 1973.93 57920.7 1130.02 1057.79 2151.57 1873.12 2337.88 842.783 1729.6
internal_count=41744 40558 36138 8796 6535 27342 26591 751 2261 1186 492 694 552 333 325 194 142 131 4420 4326 144 4182 94 66 167 156 219 61 76
is_linear=0
shrinkage=0.1


Tree=8
num_leaves=27
num_cat=0
split_feature=4 3 11 13 7 16 3 17 1 14 7 16 4 9 2 13 14 13 17 11 1 4 12 14 3 1
split_gain=938.023 1004.17 1334.69 1393.34 1227.64 1093.87 1440.03 1040.67 1609.39 1514.95 1296.85 928.086 880.796 824.023 689.279 971.641 857.632 665.416 662.291 643.004 755.799 1090.96 627.036 528.666 489.072 431.51
threshold=66.32083669887453 31.770315644495145 0.00035656589242160004 -0.015502653842453 56.553861037363326 -0.0026195233668255993 29.938788537930904 0.11257105290143597 3.5000000000000004 0.043214492626198357 56.406863486283683 -0.23872701397160509 58.830156190183089 0.0030033876399624001 1.0000000180025095e-35 0.0031330553330945507 0.0028765136172010505 -0.00036039254209784991 -0.0018487940809210999 -3.3512667244649995e-05 8.5000000000000018 68.764617525328916 -0.050951238104360592 0.0024195483637981506 77.988870439768291 12.500000000000002
decision_type=2 2 2 2 2 2 2 2 2 2 2 2 2 2 2 2 2 2 2 2 2 2 2 2 2 2
left_child=1 2 5 13 -5 6 -1 9 22 12 -10 -11 -3 -4 15 16 17 -2 -7 24 21 -21 -9 -22 -16 -26
right_child=14 7 3 4 -6 18 -8 8 10 11 -12 -13 -14 -15 19 -17 -18 -19 -20 20 23 -23 -24 -25 25 -27
leaf_value=0.00036789839481220742 0.15290778771432978 0.0084191590443261095 -0.17616571340184298 0.029188879638297513 -0.13909992463001389 -0.046460418564798628 0.075579405354536708 0.0016939027297938594 0.004771507882164021 -0.19307242452130149 0.13626029204934936 -0.027040895283612594 -0.0022265460031512907 0.0019633635368454944 0.093360762124937019 -0.1078336779488349 0.16033984976203625 0.0092377654229926845 -0.012265260482440525 0.0482852844297861 -0.026190867152260634 -0.013657428334286324 0.10812496024835275 0.0024654410189295477 -0.076298220512808351 -0.023834899470613631
leaf_weight=20862.677482191473 357.13441181182861 200253.41384041496 560.76984822750092 17790.533006532118 444.29533410072327 6040.6158538237214 2899.4714431166649 683.99446725845337 12762.199768900871 346.64459872245789 796.92370092868805 11702.839148972183 127012.96733971685 483.71037185192108 246.47766518592834 495.35585165023804 520.90639638900757 3312.1750054061413 90834.86007142067 4641.7678827494383 25236.016367729753 7338.7113570123911 2902.5364176332951 8642.6355476304889 3156.8604528810829 3114.4678357839584
leaf_count=1096 24 16027 33 898 23 428 136 29 655 18 23 713 9684 28 19 33 16 258 7603 345 2047 518 109 461 276 244
internal_value=0 0.00140208 -0.00577701 0.0186545 0.0250885 -0.00968145 0.00954525 0.00421998 0.0282567 0.00300541 0.0124996 -0.0318174 0.00428753 -0.0936722 -0.0121361 0.02461 0.0402671 0.0232212 -0.0143975 -0.0154234 -0.0112463 0.0103419 0.0878273 -0.0188805 -0.0448133 -0.0502439
internal_weight=0 496378 139917 19279.3 18234.8 120638 23762.1 356462 17145.7 339316 13559.1 12049.5 327266 1044.48 57062.5 4685.57 4190.22 3669.31 96875.5 52376.9 45859.1 11980.5 3586.53 33878.7 6517.81 6271.33
internal_count=41744 37503 10245 982 921 9263 1232 27258 816 26442 678 731 25711 61 4241 331 298 282 8031 3910 3371 863 138 2508 539 520
is_linear=0
shrinkage=0.1


Tree=9
num_leaves=25
num_cat=0
split_feature=1 8 14 4 3 7 13 6 9 15 16 17 17 14 12 0 3 8 8 13 2 11 6 14
split_gain=872.518 1243.64 894.952 855.605 817.685 806.341 731.018 1175.67 1384.46 810.221 1400.71 912.446 592.161 1311.14 787.92 585.03 575.591 438.281 420.042 740.608 392.945 340.813 322.114 168.212
threshold=9.5000000000000018 -0.096958043355698437 -0.44274754400801436 28.951311157788755 84.082435773759286 60.924933972920094 -9.0711759770899982e-05 37.658276467165017 -0.00033579862715324996 -0.00040072048546544993 0.00063703606845820005 -0.00033995266578019993 -0.00060870042397954992 -0.10886601328081009 -0.20471828107842063 29.500000000000004 27.041204105512268 -0.17123461445738994 0.00059942550647915007 0.00022195374533485001 47.500000000000007 0.00096846368113625008 45.190962766429756 -5.644060271324999e-05
decision_type=2 2 2 2 2 2 2 2 2 2 2 2 2 2 2 2 2 2 2 2 2 2 2 2
left_child=1 16 -3 6 12 15 9 23 -9 11 -11 -2 14 -14 -5 -4 17 -1 19 -6 -20 -7 -18 -8
right_child=3 2 5 4 18 21 7 8 -10 10 -12 -13 13 -15 -16 -17 22 -19 20 -21 -22 -23 -24 -25
leaf_value=-0.062469019752645918 -0.0089645398680789946 -0.10679850820884609 0.0072829498535490374 0.037581113181835095 -0.037257213477785163 -0.17234861001872931 -0.09408076433645253 -0.071304305977335086 0.071797363026713398 0.089491678498390764 -0.047321292384559344 -0.10977258250574949 -0.050685593900306351 0.0030941733089322812 -0.0076100974744763017 -0.022332535355925547 0.060539655583595545 0.056294284082582385 -0.054041184678212464 0.079377223137500341 0.0091226936025257024 -0.043089690203569661 0.14081040104958306 -0.16774107208852651
leaf_weight=465.01706022024155 3269.1175279989839 713.91294884681702 149151.7572285831 3975.7649857401848 1478.9362442046404 319.57775223255157 497.58421096205711 2223.0721651315689 971.52389671653509 1724.1650537028909 1322.198573499918 1237.8605492413044 4623.7372687160969 231702.86362104677 130369.9795037508 6982.482506589964 1005.0158966481686 936.56268425658345 5783.1890579089522 861.58492895960808 1187.0673923492432 563.94390439987183 994.69328594207764 822.44849896430969
leaf_count=21 202 35 11156 143 183 25 45 154 90 130 77 80 226 18933 8964 522 37 39 412 88 73 25 20 64
internal_value=0 0.00620162 0.00491153 -0.00253933 -0.0017068 0.00541945 -0.0287532 -0.0605882 -0.027785 -0.00972536 0.0301114 -0.0366519 -0.000971593 0.00204197 -0.00627273 0.00595852 0.066028 0.0168909 -0.0309761 0.00567787 -0.0432841 -0.0898438 0.100468 -0.139975
internal_weight=0 161133 157732 392051 379983 157018 12068 4514.63 3194.6 7553.34 3046.36 4506.98 370672 236327 134346 156134 3401.29 1401.58 9310.78 2340.52 6970.26 883.522 1999.71 1320.03
internal_count=41744 11880 11763 29864 29022 11728 842 353 244 489 207 282 28266 19159 9107 11678 117 60 756 271 485 50 57 109
is_linear=0
shrinkage=0.1


Tree=10
num_leaves=29
num_cat=0
split_feature=1 4 7 7 8 0 1 17 3 2 13 10 3 16 5 7 6 0 6 15 0 8 10 13 13 11 10 16
split_gain=817.519 734.953 900.035 1266.47 1222.44 734.846 684.703 1651.2 809.608 588.778 984.682 720.655 583.455 981.683 901.023 801.861 1087.85 609.829 576.606 608.286 505.711 499.372 432.234 1381.4 951.658 368.824 421.786 193.888
threshold=1.5000000000000002 66.32083669887453 54.690383499312468 54.491421090898392 0.00064359190037325002 7.5000000000000009 19.500000000000004 0.0023306451534546003 64.847285814535255 1.0000000180025095e-35 0.0031330553330945507 0.0004779068988733501 57.846252933815521 -0.0005072120060593499 49.499576035462134 46.377446449583914 38.245793480935596 6.5000000000000009 50.045074755756424 0.050454919065074759 15.500000000000002 0.00038098930198330005 0.076238741959059567 -0.00090241164691114986 -0.058576056805261741 0.045415002082165805 0.0010887740504625504 0.0014135299478683003
decision_type=2 2 2 2 2 2 2 2 2 2 2 2 2 2 2 2 2 2 2 2 2 2 2 2 2 2 2 2
left_child=12 2 3 5 -5 -2 8 -8 -4 10 11 -3 14 25 15 16 -1 -17 -15 -20 21 -16 23 -11 -24 26 -14 -22
right_child=1 9 6 4 -6 -7 7 -9 -10 22 -12 -13 13 18 20 17 -18 -19 19 -21 27 -23 24 -25 -26 -27 -28 -29
leaf_value=-0.03304677289746711 -0.0078405432905695599 -0.041618264476144085 0.033606981437426277 -0.0088704784424500534 -0.11295312932193023 0.0020054899411889246 -0.058414175831843995 0.054990154533653635 0.0038021972047485534 -0.086294001867138259 -0.1173442570730846 0.060293493378743845 -0.024616557692276244 -0.11529479596866893 -0.027624940492677837 0.055626648432576767 0.084779088482404161 -0.039875668587518044 0.046250896331521983 -0.097307313045029237 0.070004263291779556 0.11223736668371589 0.1161840403286399 -0.013255491770905726 -0.0063308888991665969 0.050781942079728019 -0.1196189146405434 0.14387451164584644
leaf_weight=1103.0701332092285 97783.066037138924 885.30660563707352 19283.004500884563 2672.9894342571497 1952.826470836997 337181.34250470251 3605.4902652055025 1993.9936800003052 17281.996005851775 2755.5150115601718 451.55412864685059 3208.8575960099697 922.62427857145667 271.84333189576864 599.45100383460522 897.18636900186539 2705.4998624324799 2624.5340591371059 3793.2702313419431 320.05993890762329 516.55480113625526 444.63806235790253 769.8465793132782 42979.452693596482 3593.5337346792221 277.63887691497803 947.01353764533997 1138.2955297231674
leaf_count=83 7361 85 1393 243 108 25801 293 96 1183 184 30 205 87 27 44 65 175 229 279 19 40 22 31 3340 205 11 69 36
internal_value=0 -0.000669501 0.000577149 -0.000761498 -0.0528098 -0.000207968 0.0145334 -0.0180305 0.0195201 -0.0116603 0.0227997 0.0382565 0.0218885 -0.0013682 0.0370365 0.0188491 0.0506534 -0.0155457 0.0257586 0.0350806 0.0864332 0.0319371 -0.014787 -0.017656 0.0152849 -0.0567666 -0.0727374 0.120816
internal_weight=0 536399 481755 439590 4625.82 434964 42164.5 5599.48 36565 54644.1 4545.72 4094.16 16561.7 6532.45 10029.2 7330.29 3808.57 3521.72 4385.17 4113.33 2698.94 1044.09 50098.3 45735 4363.38 2147.28 1869.64 1654.85
internal_count=41744 40558 36478 33513 351 33162 2965 389 2576 4080 320 290 1186 492 694 552 258 294 325 298 142 66 3760 3524 236 167 156 76
is_linear=0
shrinkage=0.1


Tree=11
num_leaves=24
num_cat=0
split_feature=3 1 13 8 5 7 3 7 8 8 3 15 5 7 14 17 0 7 8 0 15 6 9
split_gain=722.43 767.979 760.748 829.288 674.548 826.686 958.481 664.298 643.809 633.901 589.118 825.688 650.102 830.137 521.259 487.91 467.507 817.772 493.693 445.398 394.659 327.699 113.032
threshold=10.709207831494675 1.5000000000000002 -4.5603242288799995e-05 -0.0021664118370888497 61.132196578382541 54.690383499312468 64.847285814535255 53.956257048060557 -0.0012555384189774498 -0.0010432562122185999 57.846252933815521 0.00016788044667070005 49.499576035462134 46.377446449583914 0.061187388654118956 -0.44657149788665246 29.500000000000004 54.558947030880745 0.00032336682719215007 15.500000000000002 0.0011731819324844004 40.463361185656218 -0.00029011511171604995
decision_type=2 2 2 2 2 2 2 2 2 2 2 2 2 2 2 2 2 2 2 2 2 2 2
left_child=2 10 3 -1 5 7 -7 -3 -5 -10 12 15 13 -2 -13 -12 18 -18 -6 -14 21 22 -4
right_child=1 4 20 8 16 6 -8 -9 9 -11 11 14 19 -15 -16 -17 17 -19 -20 -21 -22 -23 -24
leaf_value=-0.14850634183893494 0.056967241401936652 0.00067182354780160496 -0.099523815370093527 0.13433105963732175 -0.038151197401234176 0.033037039660783675 -0.0027797854958771968 -0.018424814126782742 -0.16687431724061158 0.022762385333745364 -0.19119740338804334 0.047857754649029055 0.029088087461254963 -0.012829616722605179 -0.070274196580104628 -0.028148002778423494 -0.13414754590741476 -0.016686126001120384 -0.0054012020277115925 0.11339341812531097 -0.011653682277885047 -0.028828066765337085 -0.16731682892778646
leaf_weight=319.20301878452301 3363.7171938717365 422798.4366499763 386.12530606985092 421.87233352661133 5042.5355642288923 16635.43356756866 13563.225140605122 19035.982634276152 210.11123156547546 1094.3845973461866 195.84999847412109 2958.7179647125304 1034.0711084455252 3453.6034951917827 427.49350476264954 2916.9444172717631 816.46981889009476 2162.7150715589523 52798.434138303623 1590.6176407560706 494.21841438859701 331.45703011006117 677.4231920838356
leaf_count=20 228 32379 37 19 620 1162 924 1379 14 112 9 204 66 287 23 256 57 136 3607 76 33 36 60
internal_value=0 0.000313027 -0.0426889 -0.000432388 -0.000334003 0.000943142 0.0169505 -0.000150935 0.0269463 -0.00778183 0.021941 -0.00123039 0.03789 0.0216087 0.0329441 -0.0384067 -0.0102461 -0.0488774 -0.00825632 0.0801789 -0.0884425 -0.115647 -0.142704
internal_weight=0 548794 3934.8 2045.57 532853 472033 30198.7 441834 1726.37 1304.5 15941 6499.01 9442.01 6817.32 3386.21 3112.79 60820.2 2979.18 57841 2624.69 1889.22 1395.01 1063.55
internal_count=41744 41413 331 165 40264 35844 2086 33758 145 126 1149 492 657 515 227 265 4420 193 4227 142 166 133 97
is_linear=0
shrinkage=0.1


Tree=12
num_leaves=27
num_cat=0
split_feature=5 12 12 16 14 15 4 9 0 7 7 16 14 6 15 13 7 17 9 0 14 7 15 13 1 4
split_gain=649.437 898.137 851.336 1204.14 1170.46 1496.33 701.542 1749 831.282 647.72 2093.44 772.878 594.42 669.178 609.963 589.834 949.493 721.093 452.127 409.78 358.942 370.824 178.884 140.797 32.8338 8.50051
threshold=34.325640024274122 -0.00035227380433559998 -0.27421731176991665 -0.28692553528609455 0.029900814437318905 -0.15209843273113169 58.830156190183089 0.00019452410276885005 29.500000000000004 44.605825159174934 47.821289592825075 -0.45433461701064454 -0.0011327546141443499 36.457718826512675 -0.0036743771131959499 -0.00061289281994619989 43.301723881869215 0.0011750410340216502 -0.0010537675163716498 10.500000000000002 -5.644060271324999e-05 43.707892897583356 0.0014063666793352003 2.2513006427550003e-05 12.500000000000002 39.787351464819075
decision_type=2 2 2 2 2 2 2 2 2 2 2 2 2 2 2 2 2 2 2 2 2 2 2 2 2 2
left_child=1 12 9 4 5 -4 7 -5 -8 19 11 -11 13 14 -1 16 -14 -17 -15 -2 21 23 24 -3 -22 -21
right_child=2 20 3 6 -6 -7 8 -9 -10 10 -12 -13 15 18 -16 17 -18 -19 -20 25 22 -23 -24 -25 -26 -27
leaf_value=-0.068461622825552668 0.12671951891740296 -0.14434770395646007 -0.036965495462906887 0.00038398766011337918 -0.18259361769894181 0.078207783589028496 -0.0024486697247964161 0.019443690364264965 -0.033580309290041667 -0.18282810933658433 0.16811128250562676 -0.012247590378031855 -0.047637634487418305 -0.043996581426078207 -0.00083991321889158733 0.029931051416817529 0.14930055422756913 -0.085483699951733064 -0.16722036244903374 0.048644554595590334 -0.17640201138272416 0.06744626092012003 -0.050983829474070867 -0.029360834150564803 -0.1342239799533135 0.030832696796154909
leaf_weight=1686.2228190302849 1092.6704537644982 221.3989964723587 10430.962935142219 276929.25375044346 487.90291500091553 1264.8210901021957 177639.0471299421 58277.603217989206 9012.3307110331953 419.31556725502014 514.44326162338257 724.63053613901138 368.09365012869239 733.54569333791733 6384.626550167799 1841.4436574280262 730.95317327976227 766.74124252796173 501.22124576568604 533.10835361480713 321.95423436164856 234.76862549781799 227.05850338935852 205.16822186112404 432.50351315736771 538.65327870845795
leaf_count=83 29 23 482 22097 24 43 13514 3821 638 25 11 29 32 35 411 152 51 51 27 20 26 23 14 20 43 20
internal_value=0 -0.0207628 0.000572723 0.00023612 -0.0308408 -0.0245103 0.000961665 0.00369762 -0.00395184 0.0475957 0.000570473 -0.0747742 -0.0119669 -0.0254569 -0.014968 0.0218948 0.0833419 -0.003998 -0.094016 0.0836264 -0.0904343 -0.0334899 -0.128803 -0.0890419 -0.152223 0.0396925
internal_weight=0 14655.7 537865 534042 12183.7 11695.8 521858 335207 186651 3822.82 1658.39 1143.95 13012.8 9305.62 8070.85 3707.23 1099.05 2608.18 1234.77 2164.43 1642.85 661.336 981.516 426.567 754.458 1071.76
internal_count=41744 991 40753 40619 549 525 40070 25918 14152 134 65 54 842 556 494 286 83 203 62 69 149 66 83 43 69 40
is_linear=0
shrinkage=0.1


Tree=13
num_leaves=25
num_cat=0
split_feature=1 8 14 7 3 7 16 6 6 7 16 12 13 9 13 9 0 3 9 13 3 6 11 11
split_gain=654.412 1019.46 696.689 637.313 623.339 700.896 1208.06 1093.81 1185.86 914.006 845.039 600.913 887.813 1007.95 861.974 779.452 751.085 744.326 546.245 481.372 594.794 381.071 288.784 167.143
threshold=9.5000000000000018 -0.096958043355698437 -0.44274754400801436 60.924933972920094 21.254675564826368 45.989120531231997 -0.64811904060732661 42.728636761553609 47.784703091302042 48.176063379630925 -0.64811904060732661 1.0000000180025095e-35 0.00020563617386670002 -0.13260050607236007 0.061764881119520311 -0.00075874899796784991 14.500000000000002 15.878762912227787 -0.044754759072227444 0.0078213258273754013 36.627801910177332 38.509281439326273 0.0026983990138588006 -0.025340560571519247
decision_type=2 2 2 2 2 2 2 2 2 2 2 2 2 2 2 2 2 2 2 2 2 2 2 2
left_child=1 19 -3 18 11 7 -7 10 -9 -8 -6 12 13 -2 -14 16 -13 -17 -4 20 21 -1 -5 -21
right_child=4 2 3 22 5 6 9 8 -10 -11 -12 15 14 -15 -16 17 -18 -19 -20 23 -22 -23 -24 -25
leaf_value=0.040450507789156827 -0.15604295486666775 -0.096270497704927224 -0.037045412458037434 -0.13218967948316118 0.13311873798822246 -0.12064725517817965 -0.013436993559671664 0.043665499559144699 -0.11885526193612608 0.00012518975760950087 0.00075514984341078586 -0.12958427217195836 -0.085525834308786908 -0.011672755469844927 0.10340771401036733 -0.01499495953449595 0.013041241907860018 0.075296577704366721 0.005972361008898041 0.1300109778510547 0.1184361258341826 -0.070633502157051928 -0.016914729746653364 0.065794667064713569
leaf_weight=636.88131761550903 496.28424119949341 686.87375152111053 3010.0053048767149 482.75509184598923 487.58316230773926 869.95075297355652 62413.424162890762 10851.837425138801 468.34375786781311 243806.07288507 44722.273501133546 635.52103605866432 3118.5045337080956 18915.368679758161 261.7449107170105 1550.6275744736195 881.17932415008545 2220.2768514454365 152739.65526033565 842.17798358201981 473.05239295959473 599.51917854696512 395.25335693359375 781.38092184066772
leaf_count=25 26 35 184 35 11 39 4912 789 32 18811 3166 40 241 1426 8 140 49 174 11494 24 15 27 15 26
internal_value=0 0.0053809 0.00422137 0.00466207 -0.00219821 -0.00108965 -0.00297335 0.00914318 0.0369416 -0.00263904 0.00218268 -0.0165536 -0.0235997 -0.0153638 -0.070896 0.0138183 -0.0467211 0.0381679 0.005141 0.0601095 0.0230732 -0.0134131 -0.0802963 0.0991052
internal_weight=0 160648 157315 156628 391699 363619 307089 56530 11320.2 306219 45209.9 28079.5 22791.9 19411.7 3380.25 5287.6 1516.7 3770.9 155750 3333.01 1709.45 1236.4 878.008 1623.56
internal_count=41744 11880 11763 11728 29864 27760 23762 3998 821 23723 3177 2104 1701 1452 249 403 89 314 11678 117 67 52 50 50
is_linear=0
shrinkage=0.1


Tree=14
num_leaves=26
num_cat=0
split_feature=1 9 6 8 14 16 9 6 4 5 2 10 6 16 3 3 3 1 3 12 6 7 11 2 0
split_gain=530.692 877.125 1535.87 1213.65 1154.51 1468.39 1091.04 1087.44 976.457 916.685 845.355 789.947 524.14 710.29 600.714 537.903 614.362 752.806 529.706 469.104 432.907 396.801 531.123 325.971 206.523
threshold=9.5000000000000018 -0.011588190000429597 52.971741321512731 -0.022394150860961245 0.16328052585194544 0.055399985160882105 0.028239171115530506 50.045074755756424 41.692278370920029 47.145754243428719 17.500000000000004 -0.0048003790347615491 34.40114591530714 -0.00059730746065139988 10.709207831494675 84.082435773759286 83.582684922616309 15.500000000000002 10.709207831494675 -0.0019807864901176496 54.198721048164423 51.012039453824535 -0.0023645497218793992 22.500000000000004 8.5000000000000018
decision_type=2 2 2 2 2 2 2 2 2 2 2 2 2 2 2 2 2 2 2 2 2 2 2 2 2
left_child=1 2 7 6 5 -5 8 9 -3 -1 -6 -9 13 14 -2 16 18 -18 -14 -16 -4 23 -23 -17 -15
right_child=12 3 20 4 10 -7 -8 11 -10 -11 -12 -13 15 24 19 21 17 -19 -20 -21 -22 22 -24 -25 -26
leaf_value=0.027168026195896512 0.12051772542957871 -0.034165012315919424 -0.1611014705328116 0.004181016205308862 -0.04069554809652462 -0.056548864027680001 0.096394541349420257 0.043424759536347897 -0.15481502471856207 -0.091894787112463516 0.097387841334936831 0.15135352209998343 -0.069886369084687303 -0.17174501745222481 -0.0038849279287187276 -0.16237511292493778 -0.0092381948385959686 0.13930615075345368 -0.00110666839431133 -0.11328935104972529 -0.027178898573374528 0.1187552348205317 -0.023970451370805265 -0.028005121022097082 -0.073304237860036675
leaf_weight=13571.08982700482 291.37963128089905 1769.7388013973832 503.65429899096489 132487.15078852884 560.27979201078415 4104.7619432210922 400.37513542175293 1570.3607321307063 1080.2832174301147 679.00172901153564 2124.5794164538383 1193.5872192382812 1123.0715056061745 409.24345707893372 1463.9851022958755 369.07573980093002 674.46340636536479 690.40318688377738 376749.8023446817 535.19951341673732 463.50190925598145 269.24546027183533 8243.669162735343 353.42496690154076 444.69889265298843
leaf_count=757 20 108 27 10373 34 283 9 74 53 35 79 28 111 27 89 26 62 39 28671 53 20 18 684 28 36
internal_value=0 0.00484846 0.0256608 0.00222277 0.00363247 0.00235601 -0.0581816 0.0326289 -0.0798967 0.0214948 0.0685724 0.0900329 -0.00197903 -0.0426418 -0.0136226 -0.00164988 -0.00106919 0.0659014 -0.00131109 -0.0331735 -0.0969201 -0.025495 -0.0194563 -0.0966455 -0.120481
internal_weight=0 160508 17981.2 142527 139277 136592 3250.4 17014 2850.02 14250.1 2684.86 2763.95 391618 3144.51 2290.56 388473 379238 1364.87 377873 1999.18 967.156 9235.42 8512.91 722.501 853.942
internal_count=41744 11880 941 10939 10769 10656 170 894 161 792 113 102 29864 225 162 29639 28883 101 28782 142 47 756 702 54 63
is_linear=0
shrinkage=0.1


Tree=15
num_leaves=22
num_cat=0
split_feature=1 9 10 9 12 8 5 5 3 4 5 3 0 0 0 12 0 12 17 15 3
split_gain=484.551 528.434 880.099 1961.38 1270.04 850.514 1121.08 813.954 663.617 584.313 1630.72 636.64 492.295 925.039 689.983 653.33 608.229 577.189 862.838 292.71 277.499
threshold=1.5000000000000002 0.087334084128534759 0.0035389263339794005 -0.038824285588705439 0.011596254353953752 0.057939619321984957 50.681464768090102 66.308612706999369 31.770315644495145 61.355074028502223 54.114307224638914 72.223712904104133 1.5000000000000002 4.5000000000000009 10.500000000000002 -0.050951238104360592 6.5000000000000009 -0.00065697311857719986 0.00064054624581630012 -1.5433758397199996e-05 31.998450694240088
decision_type=2 2 2 2 2 2 2 2 2 2 2 2 2 2 2 2 2 2 2 2 2
left_child=12 2 5 -4 -5 8 -7 9 -2 10 -3 -11 19 17 16 -16 -15 20 -19 -1 -14
right_child=1 7 3 4 -6 6 -8 -9 -10 11 -12 -13 13 14 15 -17 -18 18 -20 -21 -22
leaf_value=0.014088127079213468 -0.0060126767277979346 0.093549436451841619 -0.19203855343977366 -0.032047437585406527 0.0014595140263562211 0.11285858694812843 -0.012939784216841319 -0.086038447524521888 0.0023699669586040033 0.089058341184761594 -0.10914023506685494 0.018116279366687114 0.052912359191307538 0.021528475651103884 -0.05473366417931979 0.031488011375082288 -0.067285072660920806 -0.0699029885352105 0.14664687902778645 -0.12704190179972169 0.15538336023472799
leaf_weight=244.16310381889343 129678.46452497877 731.71254301071167 609.1772141456604 18412.630235526711 29334.358088189736 1536.8949017524719 1314.1636602878571 592.32088625431061 347539.77069923654 2484.3749534487724 867.55422499775887 2577.2777173146605 376.1291618347168 1332.7534809708595 968.90572336316109 9452.0138068739325 1829.7327835261822 468.41524410247803 303.0319938659668 369.1461081430316 888.69640374183655
leaf_count=19 9699 25 31 1042 1876 36 49 38 27508 96 48 110 23 92 56 714 148 49 24 24 37
internal_value=0 -0.00050984 -0.000877814 -0.0137366 -0.0114617 0.000417419 0.0548732 0.0262984 9.20817e-05 0.036288 -0.0164036 0.0529363 0.0170271 0.0204778 0.0110555 0.0234714 -0.0298567 0.0833315 0.0151599 -0.070857 0.124911
internal_weight=0 535679 528425 48356.2 47747 480069 2851.06 7253.24 477218 6660.92 1599.27 5061.65 16233 15619.7 13583.4 10420.9 3162.49 2036.27 771.447 613.309 1264.83
internal_count=41744 40558 40241 2949 2918 37292 85 317 37207 279 73 206 1186 1143 1010 770 240 133 73 43 60
is_linear=0
shrinkage=0.1


Tree=16
num_leaves=22
num_cat=0
split_feature=4 9 7 0 9 7 13 10 13 3 2 8 8 9 3 13 3 12 9 4 7
split_gain=475.775 1359.29 1892.95 1123.89 1526.64 1392.93 1106.02 1266.42 978.659 870.222 861.25 841.946 767.392 762.274 613.803 579.385 987.212 875.695 555.79 286.873 170.394
threshold=58.830156190183089 3.7866849876400009e-05 43.707892897583356 7.5000000000000009 -8.8301973677949987e-05 56.553861037363326 0.082984716763535818 0.0047940602024354002 0.0019279999554716002 50.803040446145957 47.500000000000007 -0.064332031701780992 -0.042464605124166548 -0.017125173044612845 48.922449311552874 -0.058576056805261741 84.082435773759286 -0.0011439952509586999 8.5829102914850017e-05 59.284496828172557 41.998621943709459
decision_type=2 2 2 2 2 2 2 2 2 2 2 2 2 2 2 2 2 2 2 2 2
left_child=1 3 18 9 5 -5 7 -4 -6 11 -11 -1 -8 -2 19 16 -16 -17 -3 -15 -20
right_child=13 2 6 4 8 -7 12 -9 -10 10 -12 -13 -14 14 15 17 -18 -19 20 -21 -22
leaf_value=0.024388960121225087 0.12093265934342617 0.03295286225156812 0.016585979982523941 0.0056352541391457411 -0.019071158478928239 -0.17138684868820137 -0.026091055294296298 -0.019028727993551459 -0.201215980901888 0.032153973574303614 -0.078003645528426965 -0.02148743930430938 0.078880672088819631 -0.18460998933785852 0.032407752819988582 -0.069508563245203547 -0.11351537786973523 -0.0043923735067171281 -0.092713104631192922 -0.045367346286758238 -0.18248068339773815
leaf_weight=4354.8352981209755 487.06434315443039 203.29743114113808 72875.635398469865 183445.18439113535 24398.085534404963 445.58227324485779 842.068403840065 11569.366203676909 298.59368705749512 6244.4920841436833 800.7544816210866 49154.863417835906 4026.4410573840141 258.59965892881155 7155.1932249478996 2089.0516182333231 495.74144273996353 181350.12766350619 332.17281723022461 345.82949298620224 581.84268003702164
leaf_count=202 20 17 5677 13290 2731 23 28 726 16 518 75 3823 138 18 296 162 34 13854 24 33 39
internal_value=0 0.00215328 0.0127603 -0.00141065 0.00207113 0.00520632 0.0143786 0.0117066 -0.0212734 -0.013404 0.0196336 -0.0177538 0.0607245 -0.00401018 -0.00432764 -0.00400939 0.0229527 -0.00513393 -0.116595 -0.104941 -0.149857
internal_weight=0 359573 90430.8 269142 208587 183891 89313.5 84445 24696.7 60554.9 7045.25 53509.7 4868.51 192182 191695 191090 7650.93 183439 1117.31 604.429 914.015
internal_count=41744 27327 6649 20678 16060 13313 6569 6403 2747 4618 593 4025 166 14417 14397 14346 330 14016 80 51 63
is_linear=0
shrinkage=0.1


Tree=17
num_leaves=27
num_cat=0
split_feature=1 10 8 5 5 10 2 3 15 17 15 13 17 0 13 4 8 0 14 11 7 0 3 6 2 9
split_gain=458.201 943.625 922.94 848.058 817.518 789.748 735.586 531.314 526.908 475.469 1204.31 829.779 1124.17 758.131 733.046 1513.38 1010.43 696.765 1229.77 1129.82 760.16 726.833 914.726 860.802 440.372 301.597
threshold=20.500000000000004 0.058366689444810008 -0.038848867513941295 57.812897247046457 55.533521682700744 0.031626162302281109 27.500000000000004 76.521913463368193 -0.056940058422521846 -0.00077211747585479991 -0.00043684572761539995 -0.086637226217891175 0.12871474420241868 4.5000000000000009 -3.53934626083e-05 35.354547477413298 0.0012233979043730001 4.5000000000000009 0.0054570874196570507 -0.0044169559758917487 53.898938034911261 12.500000000000002 87.971651405330064 35.91271585870907 22.500000000000004 0.045854240393156359
decision_type=2 2 2 2 2 2 2 2 2 2 2 2 2 2 2 2 2 2 2 2 2 2 2 2 2 2
left_child=9 2 8 5 -3 -4 -5 25 -2 17 14 12 -12 -13 16 -16 -11 18 19 -1 -20 22 -19 -23 -10 -6
right_child=1 4 3 6 7 -7 -8 -9 24 10 11 13 -14 -15 15 -17 -18 21 20 -21 -22 23 -24 -25 -26 -27
leaf_value=0.062781433451588556 -0.17648412162967095 0.15326221240163848 0.0013124318258806681 -0.01459094605507817 -0.11844318880457055 -0.13057227972278601 -0.07462008611816584 0.10230564944716281 -0.011103132225910261 0.018649748980612842 0.16860115971192671 -0.013716026024629858 0.011515736318705521 0.0018967634857438996 -0.089014316974193028 0.06601491583070794 -0.021168003198841531 -0.017541522104341234 0.11870824827757649 -0.0032313338159850077 -0.029007726833459625 -0.063116829819195641 0.10142467935892768 0.0001675804045849393 -0.11948085288153586 0.011879556136288712
leaf_weight=2987.468713119626 439.67293119430542 620.29730033874512 25348.252510778606 5432.357493519783 293.09965002536774 462.32737852632999 3270.1185917630792 409.96009278297424 975.59161353111267 40655.706292258576 682.23690664768219 35652.448139647022 1371.2589952945709 243660.75535815768 709.24769186973572 5612.9088270664215 7557.8502092510462 48335.157775864005 1597.785369604826 19621.479187488556 445.51693308353424 2195.8353804573417 655.07349401712418 101555.68541458994 608.93612337112427 450.53945183753967
leaf_count=128 22 15 1922 389 24 41 257 15 55 2986 24 2880 62 20477 41 355 387 3162 72 1337 25 146 39 6822 35 26
internal_value=0 -0.0105431 -0.0140011 -0.0101521 0.0606833 -0.00104993 -0.037148 0.0109031 -0.0796283 0.000793897 0.00300567 0.000369532 0.0637045 -9.61039e-05 0.0166063 0.048623 0.012408 -0.00339417 0.0122058 0.00549137 0.0865006 -0.00591199 -0.0159508 -0.00117179 -0.0527528 -0.0394862
internal_weight=0 38311.2 36537.3 34513.1 1773.9 25810.6 8702.48 1153.6 2024.2 513296 335902 281367 2053.5 279313 54535.7 6322.16 48213.6 177394 24652.3 22608.9 2043.3 152742 48990.2 103752 1584.53 743.639
internal_count=41744 2801 2721 2609 80 1963 646 65 112 38943 27212 23443 86 23357 3769 396 3373 11731 1562 1465 97 10169 3201 6968 90 50
is_linear=0
shrinkage=0.1


Tree=18
num_leaves=26
num_cat=0
split_feature=0 0 13 12 1 3 2 6 8 9 2 17 10 9 9 14 13 2 8 8 6 15 3 2 10
split_gain=461.098 1098.76 1429.25 909.997 1257.99 1115.09 1342.14 1014.17 839.814 1110.07 828.189 932.213 723.004 1323.43 822.308 702.184 1570.19 777.651 668.269 651.088 1367.5 822.706 474.924 497.714 105.875
threshold=29.500000000000004 28.500000000000004 -0.0010629864847234497 0.0011542665320600002 17.500000000000004 55.973388846353892 22.500000000000004 60.840282980459712 0.11565564996230647 0.016256211672960503 12.500000000000002 -0.0012256355100356997 0.0011195497406262002 0.00034280671245885008 0.00036915870530940004 0.0020131995132692004 -0.058576056805261741 32.500000000000007 0.026565652395959153 0.0012233979043730001 53.298971738604799 0.034620189646698961 75.70239964700724 27.500000000000004 -0.00097752563474769985
decision_type=2 2 2 2 2 2 2 2 2 2 2 2 2 2 2 2 2 2 2 2 2 2 2 2 2
left_child=1 15 10 8 5 6 -5 -7 9 18 24 -12 13 -4 -14 19 -17 -18 -2 21 -21 -1 23 -6 -3
right_child=3 2 12 4 22 7 -8 -9 -10 -11 11 -13 14 -15 -16 16 17 -19 -20 20 -22 -23 -24 -25 -26
leaf_value=-0.0001136654328951662 -0.0044747439294899119 0.11717338791463763 0.0078458007627634774 -0.11689464023633761 0.089250468139506114 -0.13895364327027376 0.086436671840642659 -0.0089855209711062461 0.17620922693771984 -0.1826417751232029 0.090412883386822629 -0.039854805385476456 -0.16067088291613896 0.10597071544420028 -0.011383797007923082 0.13537636796649435 0.013855352630313709 -0.0052553107072502341 0.11910257536721461 0.0052055612967961615 -0.028265440544519328 -0.061779978094435195 -0.083743500402436694 -0.030943496774232804 0.18556092838121999
leaf_weight=365475.81672134437 19303.044576451182 359.41397152841091 9376.8209468778223 553.11681681871414 990.4235588312149 2388.8640428781509 785.86753092706203 801.9509020447731 259.69230270385742 344.87479785084724 1878.6188147738576 776.36258617043495 437.19444465637207 1610.5836455523968 2364.3873330913484 954.44340467453003 54820.120404232293 34815.648474689573 447.74708938598633 22765.748175796121 26317.14660230279 2176.3423328697681 337.25229179859161 528.28467583656311 611.61199045181274
leaf_count=30652 1631 22 828 30 57 126 44 43 4 19 77 50 23 121 139 25 2965 1983 12 1117 1554 134 17 45 26
internal_value=0 0.000659447 0.0253573 -0.0128023 -0.0457377 -0.0741481 0.00244318 -0.106289 -0.00246995 -0.00477899 0.0812228 0.0523204 0.0106667 0.0222294 -0.0346805 -0.000188359 0.00779106 0.00643253 -0.00167327 -0.00192293 -0.0127408 -0.000478703 0.0236029 0.0474408 0.160248
internal_weight=0 524740 17415 26741.1 6385.76 4529.8 1338.98 3190.81 20355.4 20095.7 3626.01 2654.98 13789 10987.4 2801.58 507325 90590.2 89635.8 19750.8 416735 49082.9 367652 1855.96 1518.71 971.026
internal_count=41744 39716 1286 2028 362 243 74 169 1666 1662 175 127 1111 949 162 38430 4973 4948 1643 33457 2671 30786 119 102 48
is_linear=0
shrinkage=0.1


Tree=19
num_leaves=25
num_cat=0
split_feature=1 17 17 16 7 11 10 11 5 7 14 9 3 13 1 9 0 3 7 7 16 10 6 11
split_gain=415.577 889.031 773.962 1918.59 916.592 868.08 1166.7 708.022 440.089 724.305 994.158 1551.69 738.438 995.349 627.29 554.692 431.436 705.349 664.323 490.3 845.722 391.416 365.773 143.804
threshold=6.5000000000000009 -0.63302771154462467 0.076027166635856722 0.044070137677891759 53.500708624522105 0.07081621765820427 -0.0010767591289063997 0.07081621765820427 61.132196578382541 54.690383499312468 0.28729330353525034 0.0068030224886874513 64.847285814535255 0.00098710978030420028 20.500000000000004 0.087334084128534759 1.5000000000000002 76.788211106798258 55.92314514624362 51.225970952540287 -0.0024466755641514497 0.00095240438817085018 57.973151512231887 0.045415002082165805
decision_type=2 2 2 2 2 2 2 2 2 2 2 2 2 2 2 2 2 2 2 2 2 2 2 2
left_child=1 23 3 7 -5 6 -4 -3 9 10 15 -12 14 -14 -11 -2 17 21 -19 22 -21 -10 -18 -1
right_child=8 2 5 4 -6 -7 -8 -9 16 12 11 -13 13 -15 -16 -17 19 18 -20 20 -22 -23 -24 -25
leaf_value=-0.12288816684700084 -0.0011669327354913172 0.0050964895156182964 0.017108271704863905 -0.10329438902910909 0.043991272799609474 -0.092438354179401355 0.088640965302358807 0.070929464397562716 -0.0054760377988729014 0.037433380102028423 -0.10050788132100685 0.083815967966057434 0.024253641428845028 -0.033891777781967274 -0.032842638771813419 0.038920788383524925 -0.017614274508519667 0.060760678565488641 -0.12422804070308205 -0.068336962325358172 -0.010083077361104396 0.13818005157209032 0.081646692445652383 -0.046369735538588551
leaf_weight=540.92122077941895 371624.1643367596 76009.627605129033 8392.9244367070496 2350.093508914113 515.14683356881142 546.5651558637619 3130.5576370358467 1669.5352471619844 263.69831931591034 13364.17174067907 2150.2683723568916 579.87717914581299 6334.1632043421268 5500.7043372988701 1403.5417414233088 3484.0260946899652 602.00641095638275 391.5234020203352 385.04433298110962 2630.6131711006165 47354.669828115031 675.5833939909935 968.45954421162605 449.868088722229
leaf_count=24 29075 5746 429 145 37 27 131 67 28 947 95 16 527 284 94 143 59 32 29 174 3509 40 68 18
internal_value=0 0.00607807 0.00708607 0.00354726 -0.0768136 0.0307008 0.0365414 0.00651142 -0.00123467 -0.000109305 -0.00123221 -0.0613579 0.0158394 -0.00277165 0.0307543 -0.000794596 -0.00977852 0.0395513 -0.030962 -0.0114203 -0.0131488 0.0978494 0.043597 -0.088145
internal_weight=0 93605.2 92614.5 80544.4 2865.24 12070 11523.5 77679.2 457713 404441 377838 2730.15 26602.6 11834.9 14767.7 375108 53271.6 1715.85 776.568 51555.7 49985.3 939.282 1570.47 990.789
internal_count=41744 6624 6582 5995 182 587 560 5813 35120 31181 29329 111 1852 811 1041 29218 3939 129 61 3810 3683 68 127 42
is_linear=0
shrinkage=0.1


Tree=20
num_leaves=25
num_cat=0
split_feature=3 13 8 8 8 1 16 0 9 3 15 8 3 3 3 1 17 5 14 0 15 6 4 6
split_gain=398.992 490.806 551.341 622.851 509.751 415.35 466.326 1200.03 1400.48 919.135 681.885 955.794 572.971 426.497 697.378 746.382 590.608 764.022 498.716 311.451 293.79 209.594 106.131 32.6625
threshold=10.709207831494675 4.298298624300001e-05 -0.0021664118370888497 -0.0012555384189774498 -0.0010432562122185999 1.5000000000000002 -0.28692553528609455 5.5000000000000009 0.045854240393156359 74.17983119944175 -0.11445645321417029 0.095853868456451566 64.847285814535255 57.846252933815521 71.98005883178503 1.0000000180025095e-35 -0.0034364272453025493 46.274758324877887 0.0037140025022601507 15.500000000000002 0.0011731819324844004 38.509281439326273 27.873306606520902 36.457718826512675
decision_type=2 2 2 2 2 2 2 2 2 2 2 2 2 2 2 2 2 2 2 2 2 2 2 2
left_child=1 2 -1 -4 -5 13 7 8 -7 -9 11 -8 -12 16 18 -16 19 -18 -15 -2 21 23 -23 -3
right_child=5 20 3 4 -6 6 10 9 -10 -11 12 -13 -14 14 15 -17 17 -19 -20 -21 -22 22 -24 -25
leaf_value=-0.12813777940327625 0.038980687216636292 -0.12207420747541085 0.11900061718144746 -0.14866104393133303 0.0094893871675251883 0.078321961149271785 0.011061590338616447 -0.049447955258590116 -0.097324908810807298 0.013080195280815835 0.0018473525721390768 0.084164079308337109 -0.0055271685745909025 -0.060052067562008482 -0.036330212589736732 0.056990460656702782 -0.0059183027181859988 0.060742871447618342 0.066117629545589293 0.12441365318868702 -0.010835147589853746 -0.00651204507843088 -0.10864633851319312 -0.16838755295150876
leaf_weight=309.69444686174393 824.87853980064392 317.48400884866714 449.644611120224 239.73604190349579 1359.8627223894 2168.1148555278778 12103.744728405029 8408.5920811370015 574.1458922624588 3263.1882842630148 352781.80665410683 2098.6594209671021 150220.4764026124 2286.7411850523204 1321.0797284282744 2439.9822037778795 4789.6963809281588 2682.117924131453 363.02248859405518 884.03346252441406 459.89578849822283 228.60847198963165 183.33494997024536 292.63895738124847
leaf_count=20 40 33 22 16 139 75 588 381 26 142 27311 74 11667 203 116 150 389 190 23 38 32 30 16 23
internal_value=0 -0.0321108 -0.00377743 0.0150167 -0.014213 0.000232482 -0.000239336 -0.0179805 0.0415469 -0.0319664 0.000255096 0.0218638 -0.000355031 0.0163199 -0.00347237 0.0242114 0.0301406 0.0180107 -0.0427666 0.0831758 -0.077211 -0.107078 -0.0519668 -0.144288
internal_weight=0 3840.9 2358.94 2049.24 1599.6 547210 531619 14414 2742.26 11671.8 517205 14202.4 503002 15591.6 6410.83 3761.06 9180.73 7471.81 2649.76 1708.91 1481.96 1022.07 411.943 610.123
internal_count=41744 331 197 177 155 41413 40264 624 101 523 39640 662 38978 1149 492 266 657 579 226 78 134 102 46 56
is_linear=0
shrinkage=0.1


Tree=21
num_leaves=27
num_cat=0
split_feature=3 8 11 4 0 16 7 13 4 17 0 14 8 10 9 3 9 9 15 17 12 5 3 16 0 11
split_gain=405.302 947.006 1063.32 1300.56 1173.97 1169.7 1095.61 913.962 727.251 788.819 1331.38 1615.47 989.122 1348.91 1225.55 942.957 576.883 573.845 670.442 513.353 685.512 437.142 397.352 362.415 794.313 366.472
threshold=31.770315644495145 -0.00035566060299014994 -0.00023598546890229996 38.31901449787059 10.500000000000002 -0.0026195233668255993 56.553861037363326 -0.015502653842453 58.830156190183089 -0.24159392649040887 10.500000000000002 -0.19486615743562649 0.00041274751456215009 0.0035389263339794005 0.021924646412950503 58.397449119353986 -0.017125173044612845 0.00013515303543000002 -0.0010341568938989998 -0.63302771154462467 -0.083889892561955934 40.676409648043894 70.849721386882209 -0.0024466755641514497 5.5000000000000009 -0.00034413828567799994
decision_type=2 2 2 2 2 2 2 2 2 2 2 2 2 2 2 2 2 2 2 2 2 2 2 2 2 2
left_child=1 2 3 5 -5 -1 7 -4 9 10 15 -12 14 -14 -11 -2 -10 23 -19 22 -21 -20 -18 24 -3 -25
right_child=8 17 6 4 -6 -7 -8 -9 16 12 11 -13 13 -15 -16 -17 19 18 21 20 -22 -23 -24 25 -26 -27
leaf_value=0.017653092982154197 -0.050425755751143886 -0.098284129411196644 -0.079918951694050888 -0.12027229404332995 -0.023538254814546345 -0.012335440717654371 -0.15104916044018893 0.016244331912284398 0.10618836167915913 0.0029985030735052631 -0.13295625449985896 0.001286368773504974 0.034078322857177705 -0.0089373364838119772 0.13507786966096 0.061596593528630651 0.017184773257586904 -0.13675118687836135 -0.072735701520036722 0.04864388053655555 -0.0034296561877061103 0.070221484288719535 -0.094871491521661577 -0.056340799363187283 0.076202513091396612 -0.022604186312548992
leaf_weight=18122.433778043836 1212.4484540224075 364.29168653488159 1013.5370049476624 1796.6055113077164 4158.4740897715092 46075.250270448625 406.9183235168457 39766.830305060372 483.428377866745 176504.46841485985 1903.7778853178024 1694.1700313687325 25479.702516637743 10211.6988517344 705.33254909515381 1976.1420229785144 451.79858639836311 214.31647777557373 248.32949936389923 2562.6020887941122 187343.67788431607 1542.7776096463203 1056.3061014413834 3809.740552470088 919.20924818515778 20795.83873571828
leaf_count=909 51 22 61 105 240 3077 20 2631 20 14820 97 80 1305 648 15 66 18 15 20 90 14234 120 55 405 75 2545
internal_value=0 -0.00465686 -0.000528889 -0.00801688 -0.0527222 -0.00386995 0.0122251 0.0138543 0.00158466 0.00551332 -0.0280489 -0.0697453 0.00658317 0.0217711 0.00352421 0.0190006 -0.00291293 -0.0211335 0.0304004 -0.00318847 -0.00272697 0.0504011 -0.0613016 -0.0251255 0.0266786 -0.0278277
internal_weight=0 139235 111340 70152.8 5955.08 64197.7 41187.3 40780.4 411586 219688 6786.54 3597.95 212901 35691.4 177210 3188.59 191898 27894.5 2005.42 191414 189906 1791.11 1508.1 25889.1 1283.5 24605.6
internal_count=41744 10245 7043 4331 345 3986 2712 2692 31499 17082 294 177 16788 1953 14835 117 14417 3202 155 14397 14324 140 73 3047 97 2950
is_linear=0
shrinkage=0.1


Tree=22
num_leaves=29
num_cat=0
split_feature=2 8 1 8 9 3 11 16 3 14 0 10 9 0 7 3 14 14 15 10 9 11 3 16 17 17 2 0
split_gain=380.365 723.463 1967.77 1576.33 1573.33 1193.13 1009.98 1065.04 929.662 1148.61 864.067 713.068 1020.7 818.395 698.503 676.165 965.623 907.677 1421.65 783.08 1391.86 1061.63 2456.71 1061.89 822.45 688.612 597.961 38.6675
threshold=32.500000000000007 0.0012233979043730001 16.500000000000004 0.017105327636343752 0.00075434744134015013 83.079295973868199 0.06078667071036116 0.54358018780220629 68.526400445314678 -0.12579605358413906 3.5000000000000004 0.00080468518158890014 0.0092472914148911522 6.5000000000000009 58.649531166039196 20.905060781739653 -0.17265227462974042 -0.0025639653677920495 -0.0022117807226328494 -0.00054462744189219992 -0.038824285588705439 0.00083030151138360016 35.608419298656834 0.0005668010995200501 -0.44657149788665246 0.37594729831807805 42.500000000000007 12.500000000000002
decision_type=2 2 2 2 2 2 2 2 2 2 2 2 2 2 2 2 2 2 2 2 2 2 2 2 2 2 2 2
left_child=15 4 3 14 6 -5 7 -2 9 -4 -10 13 -13 -6 -3 16 27 18 -18 21 -21 23 -23 -17 -22 -19 -8 -1
right_child=1 2 8 5 11 -7 26 -9 10 -11 -12 12 -14 -15 -16 19 17 25 -20 20 24 22 -24 -25 -26 -27 -28 -29
leaf_value=-0.10633351811233829 -0.002938249895812658 -0.074095232219891088 -0.13671267133701714 -0.0061802116726042116 0.11253145805959737 -0.13020560173765314 -0.020365553349410304 0.1102900630012397 -0.081284644254544403 0.007460928277153285 0.057024962683561366 0.029902186748120931 0.11786278109529402 -0.077105403904428924 0.01214346692230469 0.016273412795866127 -0.0079042326094710229 -0.016461941033280303 0.1305571799936586 -0.17360065689044379 -0.050280489024765368 0.082822996264099918 -0.092573879465532916 -0.0080311079772388601 0.0013226774237872351 -0.17083044778866738 -0.14111144507133913 -0.15508065387363301
leaf_weight=293.23527073860168 172333.07591635548 8136.7343841195107 660.08007605373859 15512.82952176407 291.62300682067871 816.47567024827003 813.73709511756897 834.74733382463455 491.48004892468452 3393.3296104744077 5579.5659858882427 9502.2283558547497 1531.91443836689 1036.1166101694107 1061.7713428735733 56230.158232921734 2267.0061966180801 19648.68314928934 1102.0140722990036 459.80111074447632 3134.2551186680794 4724.5444774925709 960.99671202898026 26424.09000932239 211864.05705612153 293.2862548828125 826.91423124074936 365.60345780849457
leaf_count=19 14202 448 34 899 17 61 35 27 27 187 263 572 43 75 48 3475 121 1628 50 23 145 211 67 1615 17370 17 44 21
internal_value=0 -0.00318107 -0.0162369 -0.0310321 -0.000694196 -0.0123816 -0.0031323 -0.00239244 0.0210679 -0.0160171 0.0458281 0.0337829 0.0421141 -0.0354538 -0.0641408 0.00217384 -0.0139959 -0.0106216 0.0373868 0.00344964 0.000198712 0.0113786 0.0531766 0.0085034 0.000570404 -0.0187322 -0.0812234 -0.133384
internal_weight=0 222823 35652.3 25527.8 187170 16329.3 174808 173168 10124.5 4053.41 6071.05 12361.9 11034.1 1327.74 9198.51 327768 23969.8 23311 3369.02 303798 215458 88339.8 5685.54 82654.2 214998 19942 1640.65 658.839
internal_count=41744 16982 1967 1456 15015 960 14308 14229 511 221 290 707 615 92 496 24762 1856 1816 171 22906 17538 5368 278 5090 17515 1645 79 40
is_linear=0
shrinkage=0.1


Tree=23
num_leaves=25
num_cat=0
split_feature=1 8 8 17 9 6 8 11 13 16 6 16 3 12 17 14 13 3 12 11 2 17 15 0
split_gain=387.509 692.825 543.579 1291.1 827.491 1014.45 913.272 725.042 396.562 485.251 383.66 542.437 438.791 375.209 372.956 1285.26 1513.67 1451.55 713.422 1696.25 933.583 266.323 188.062 183.687
threshold=9.5000000000000018 -0.096958043355698437 -0.072153067705237037 0.37594729831807805 -0.014355745970713398 52.342342941348072 -0.022394150860961245 0.022014337131557603 0.0078213258273754013 -0.11204652796840969 34.40114591530714 -0.00059730746065139988 10.709207831494675 -0.0019807864901176496 -0.00033995266578019993 -0.10886601328081009 -0.086637226217891175 75.70239964700724 0.11174070528358011 0.040573150232030959 7.5000000000000009 -0.20339220569573147 0.14287408200624749 8.5000000000000018
decision_type=2 2 2 2 2 2 2 2 2 2 2 2 2 2 2 2 2 2 2 2 2 2 2 2
left_child=1 8 3 7 5 -4 -6 -3 9 21 11 12 -2 -14 18 17 -17 -16 19 -12 -20 -1 -10 -13
right_child=10 2 4 -5 6 -7 -8 -9 22 -11 14 23 13 -15 15 16 -18 -19 20 -21 -22 -23 -24 -25
leaf_value=3.7773642624028188e-05 0.10314542416934734 -0.052685384069815613 0.038526971623208846 -0.20079977189659293 -0.050032510022887791 -0.070994100895686016 0.0031101852352794189 0.074513391654714017 0.04291955724070505 -0.075651137327854612 -0.0057105712098212136 -0.15706692020755775 -0.0024065037252658547 -0.10102709752851996 -0.075276524365258821 0.083350533397096499 0.0014644005953094157 0.069504679161784072 -0.12644348113203002 0.053910221709212197 -0.020983947185550241 0.093024759120664102 0.11469524016213073 -0.061962233776756671
leaf_weight=595.56418704986572 290.20011568069458 1333.6289677917957 10574.995517287403 430.40067088603973 3310.6969382911921 919.25584174692631 139227.89521932416 674.90188694000244 596.57528305053711 426.13234868645668 149879.17748689279 384.1794935464859 1457.2569300532341 524.67477586865425 3963.6546738371253 2280.8194451034069 219915.33114100993 839.07099229097366 1019.8208786249161 4928.8723772764206 4745.4163568913937 637.92815222963691 940.59578657150269 430.82174491882324
leaf_count=22 20 79 595 23 193 45 10808 20 22 23 10987 27 89 53 213 101 17709 25 66 289 249 22 28 36
internal_value=0 0.00415711 0.00321556 -0.0436248 0.00395723 0.029768 0.00187586 -0.00994435 0.0502424 0.016346 -0.00169002 -0.0368034 -0.0116985 -0.0285142 -0.00141033 0.00119869 0.00230495 -0.0499822 -0.00509865 -0.00381233 -0.0396388 0.0481281 0.0868391 -0.106793
internal_weight=0 159669 156472 2438.93 154033 11494.3 142539 2008.53 3196.8 1659.62 390659 3087.13 2272.13 1981.93 387572 226999 222196 4802.73 160573 154808 5765.24 1233.49 1537.17 815.001
internal_count=41744 11880 11763 122 11641 640 11001 99 117 67 29864 225 162 142 29639 18048 17810 238 11591 11276 315 44 50 63
is_linear=0
shrinkage=0.1


Tree=24
num_leaves=24
num_cat=0
split_feature=0 0 13 12 11 3 1 1 2 17 10 9 12 1 8 10 14 13 9 14 8 16 10
split_gain=360.669 927.737 1191.44 703.163 991.071 972.435 991.584 920.186 650.654 783.942 642.019 984.166 925.077 606.834 602.419 719.581 527.154 1193.28 662.633 593.169 1452.53 598.723 97.1832
threshold=29.500000000000004 28.500000000000004 -0.0010629864847234497 0.0011542665320600002 0.00040892115431695003 49.305813338321109 16.500000000000004 9.5000000000000018 12.500000000000002 -0.0016637066635947998 -0.00029295723087554995 0.00027992900524575001 -0.00041834401700799995 22.500000000000004 0.11565564996230647 0.021311048877670605 0.0020131995132692004 -0.058576056805261741 -0.029567027157081097 0.0017953964643490502 0.00053494186494850013 0.11479673126453341 -0.00097752563474769985
decision_type=2 2 2 2 2 2 2 2 2 2 2 2 2 2 2 2 2 2 2 2 2 2 2
left_child=1 16 8 13 -5 7 -7 -6 22 -10 12 -12 -4 14 15 -2 19 -18 -19 21 -21 -1 -3
right_child=3 2 10 4 5 6 -8 -9 9 -11 11 -13 -14 -15 -16 -17 17 18 -20 20 -22 -23 -24
leaf_value=-0.0009302286506110832 0.00085072901447321976 0.10412849827139894 0.0011066682141579916 -0.18264196832728247 -0.070643145351193398 -0.088324557528198289 0.0031617656973285699 0.12521244035052323 0.08788376318089193 -0.027513433135419235 -0.036580013332930074 0.028977987079859276 0.091794157526282866 -0.10532164141256528 0.15757036858504531 -0.17162826048373286 0.11962055381067177 -0.015578924784231696 0.0090818430300287634 0.02634827754154629 -0.064729212622814392 -0.057859033255268422 0.17035504484208502
leaf_weight=406775.2659087535 19266.713483067229 352.97571763396263 2587.1724373400211 454.8743371963501 367.14548301696777 2721.4285144209862 2098.0895390808582 692.06955575942993 1752.6757862716913 886.44272881746292 4801.3912358619273 4377.7685072738677 1990.014669585973 555.79833227396011 241.58911514282227 244.95924815535545 926.86146211624146 12706.912422973663 76446.555032998323 2842.8491198867559 4559.5776796340942 1855.8306157588959 595.22984623908997
leaf_count=32917 1610 22 197 23 16 154 119 50 70 57 495 296 123 38 4 14 25 695 4253 204 247 89 26
internal_value=0 0.000584077 0.0233259 -0.0113433 -0.0404343 -0.0294308 -0.0484977 0.0573249 0.0746512 0.0491235 0.00994151 -0.00531378 0.0405347 -0.00227098 0.00062856 -0.00131466 -0.000195247 0.00674051 0.00556698 -0.00169699 -0.0297516 -0.00118878 0.145702
internal_weight=0 523458 17343.7 26642.7 6333.61 5878.73 4819.52 1059.22 3587.32 2639.12 13756.3 9179.16 4577.19 20309.1 19753.3 19511.7 506114 90080.3 89153.5 416034 7402.43 408631 948.206
internal_count=41744 39716 1286 2028 362 339 273 66 175 127 1111 791 320 1666 1628 1624 38430 4973 4948 33457 451 33006 48
is_linear=0
shrinkage=0.1


Tree=25
num_leaves=24
num_cat=0
split_feature=1 10 12 11 11 15 14 12 1 14 5 17 10 3 12 17 0 15 9 16 17 3 2
split_gain=343.972 773.489 1324.62 700.28 605.76 583.651 455.279 438.337 396.967 1532.32 1648.48 930.321 1087.39 874.084 857.878 534.6 1166.07 1239.64 810.517 744.776 1025.71 671.602 42.462
threshold=20.500000000000004 0.051892080697705005 0.13160049835968832 0.045415002082165805 -0.17204136006559265 -0.13234183485473197 0.081455806852986215 0.27237931467868753 18.500000000000004 -0.0034687975594838998 34.80259770837133 0.00075336189906460014 -0.0027737768830527498 77.067116193257064 -0.026653652897280649 -0.018897783289354247 5.5000000000000009 0.067739109110972959 0.024980947964785002 -0.0066952994492365994 0.0039259527884235009 34.079096058580618 37.500000000000007
decision_type=2 2 2 2 2 2 2 2 2 2 2 2 2 2 2 2 2 2 2 2 2 2 2
left_child=8 2 3 4 -2 -3 22 -8 15 10 -10 12 -11 -13 -12 16 17 -1 -18 20 -17 -21 -7
right_child=1 5 -4 -5 -6 6 7 -9 9 11 14 13 -14 -15 -16 19 18 -19 -20 21 -22 -23 -24
leaf_value=0.0080174967440516699 -0.14916780068878199 -0.066892694153965593 -0.16910442967097605 0.10896869611402349 -0.010613685962932943 0.10179320153805514 -0.050989230646879817 0.092990286973092653 -0.13249341546173249 0.15689993429878324 0.037120795834058216 0.034727419317873806 -0.013966825051641839 -0.065755372138771903 0.11906369519515331 0.054558429625921091 -0.030034665780201281 0.12039842516433892 6.1819516222842209e-05 -0.0057147904595261072 -0.0061100773028782644 0.0029691281306773957 0.14583458377178291
leaf_weight=6189.0807310752571 318.43572187423706 353.2424521446228 532.57251491397619 486.21471661329269 34763.749229673296 421.01385629177094 417.85995590686798 428.06077909469604 415.73669970035553 379.6637372225523 2799.5948177091777 9755.2617193218321 19605.794700283557 950.01082408428192 2350.1280758678913 6012.5031856000423 21921.443810164928 1166.5539652109146 15119.855229102075 128201.22231904976 5194.2796697691083 291698.42954185605 456.05279409885406
leaf_count=352 15 20 31 16 2639 22 28 12 23 18 136 665 1786 63 94 281 1346 36 842 9841 292 23168 18
internal_value=0 -0.00914985 -0.0125634 -0.0102195 -0.0118713 0.0502037 0.0742105 0.0218686 0.000689869 0.0107761 0.0590528 0.00202163 -0.0107209 0.0258103 0.0745163 -7.9188e-05 -0.0105277 0.0258404 -0.0177496 0.000996835 0.0264389 0.000317807 0.124694
internal_weight=0 38177.2 36101 35568.4 35082.2 2076.23 1722.99 845.921 511760 36256.2 5565.46 30690.7 19985.5 10705.3 5149.72 475503 44396.9 7355.63 37041.3 431106 11206.8 419900 877.067
internal_count=41744 2801 2701 2670 2654 100 80 40 38943 2785 253 2532 1804 728 230 36158 2576 388 2188 33582 573 33009 40
is_linear=0
shrinkage=0.1


Tree=26
num_leaves=25
num_cat=0
split_feature=1 8 7 14 8 3 1 0 0 9 10 17 13 17 17 7 9 12 11 6 7 10 6 11
split_gain=329.109 612.587 507.034 487.95 396.212 358.703 426.483 631.648 324.44 1483.2 753.443 650.096 1413.88 577.972 376.983 1191.56 1347.4 951.637 1281.99 1006.75 709.905 357.691 263.504 247.669
threshold=9.5000000000000018 -0.096958043355698437 60.924933972920094 -0.44274754400801436 -0.072153067705237037 27.041204105512268 7.5000000000000009 21.500000000000004 1.5000000000000002 -9.8298129404499984e-06 0.021311048877670605 0.042388702965921156 0.00039321421846520005 -0.0042602085404811994 0.0019876464390139004 48.413184872502661 0.00014020284951500001 0.11174070528358011 0.040573150232030959 59.750675916028946 49.147392297175465 -0.055124167809395844 45.190962766429756 0.0026983990138588006
decision_type=2 2 2 2 2 2 2 2 2 2 2 2 2 2 2 2 2 2 2 2 2 2 2 2
left_child=1 5 3 -3 -5 6 7 -1 9 11 13 12 -2 -11 17 16 -16 18 -10 -19 -17 -13 -7 -4
right_child=8 2 23 4 -6 22 -8 -9 14 10 -12 21 -14 -15 15 20 -18 19 -20 -21 -22 -23 -24 -25
leaf_value=-0.11087588564212009 -0.030579561770111521 -0.084719492222428708 -0.12196429181150488 -0.036460996990867078 0.0043732132705806542 0.04041304649162835 0.085513982254244766 0.057530175115743709 -0.0037455300882721573 0.17422541290721844 -0.077653736397181136 -0.019098118435466768 0.10265710509535904 0.050133125287476599 -0.012009844059583753 0.045506233497557912 -0.12957744872219515 -0.069936736765458515 0.047922024854487578 0.02632137221825312 0.0074303497833426799 -0.16201110151337375 0.11732856663908359 -0.014752052683205029
leaf_weight=473.91311583295465 4687.6610850319266 626.14374768733978 473.89498651027679 2413.8163603842258 152391.0952073317 936.81504076719284 475.10248672962189 420.19464015960693 291474.34097679704 403.78370475769043 434.86808741092682 283.15210211277008 959.48572278022766 5326.9602106288075 15749.915959611535 5388.4014746248722 1039.1272736787796 4116.7483509257436 4882.7267066389322 1476.15279302001 53657.081880688667 459.06858485937119 849.12829113006592 395.11892986297607
leaf_count=28 379 35 35 120 11558 37 16 16 24051 12 33 19 42 405 853 330 60 222 287 91 3050 30 20 15
internal_value=0 0.00383492 0.00295428 0.00338016 0.0037365 0.0474597 0.00895132 -0.0317318 -0.00155683 0.0142578 0.0492469 -0.0195059 -0.00794181 0.0588766 -0.0020824 0.00422097 -0.0192865 -0.00366549 -0.00289426 -0.044531 0.0109051 -0.107491 0.0769826 -0.0732176
internal_weight=0 159455 156300 155431 154805 3155.15 1369.21 894.108 390339 12555 6165.61 6389.37 5647.15 5730.74 377784 75834.5 16789 301950 296357 5592.9 59045.5 742.221 1785.94 869.014
internal_count=41744 11880 11763 11713 11678 117 60 44 29864 920 450 470 421 417 28944 4293 913 24651 24338 313 3380 49 57 50
is_linear=0
shrinkage=0.1


Tree=27
num_leaves=19
num_cat=0
split_feature=3 14 15 2 1 12 3 5 11 9 12 16 7 6 2 2 5 1
split_gain=318.675 402.719 629.755 525.048 421.073 400.546 396.287 589.378 400.116 702.535 399.446 666.814 1109.46 582.116 504.901 610.87 316.359 309.52
threshold=10.709207831494675 0.0017953964643490502 0.0015613220023257001 37.500000000000007 7.5000000000000009 -0.00064189353991929985 12.054372565959421 35.205557639834325 -5.9909590580899999e-05 -0.00065037846294509997 -0.27421731176991665 -0.28692553528609455 44.305856465619563 34.40114591530714 7.5000000000000009 37.500000000000007 36.794297915153088 8.5000000000000018
decision_type=2 2 2 2 2 2 2 2 2 2 2 2 2 2 2 2 2 2
left_child=1 2 3 5 -5 -1 7 8 9 -2 14 12 -12 -13 -8 -16 -9 -18
right_child=6 -3 -4 4 -6 -7 10 16 -10 -11 11 13 -14 -15 15 -17 17 -19
leaf_value=0.0018687442164465812 0.087690300248690373 -0.15046691960637748 0.13740539265550347 -0.046218256104460925 0.094225918435068917 -0.084661305932452829 -0.053334160611149165 0.17561782775910464 0.085988983365965846 -0.10474462257674089 -0.13421866590764797 -0.047528646495843652 -0.015177421716298788 0.00055899307299427949 0.074180467143561454 -0.011969241665130512 0.13035926668348669 -0.033488371255264847
leaf_weight=804.05315089225769 288.74586749076843 254.41728781163692 236.52922201156616 370.09673681855202 504.44931024312973 1598.4393886551261 614.65783071517944 381.41756922006607 370.27267420291901 553.14919471740723 842.50882595777512 2529.4701343253255 11069.43279337883 525038.56644587964 2399.4668286442757 1252.8308421894908 242.89956617355347 219.46605956554413
leaf_count=53 18 20 13 38 46 161 27 30 27 47 52 189 501 40344 77 56 19 26
internal_value=0 -0.028975 -0.0201778 -0.0315518 0.0347917 -0.0557019 0.000206886 0.0440276 -0.000643328 -0.038745 4.11968e-05 -0.00019985 -0.023597 0.000328433 0.0305173 0.0446289 0.108201 0.0525875
internal_weight=0 3767.99 3513.57 3277.04 874.546 2402.49 545803 2055.95 1212.17 841.895 543747 539480 11911.9 527568 4266.96 3652.3 843.783 462.366
internal_count=41744 331 311 298 84 214 41413 167 92 65 41246 41086 553 40533 160 133 75 45
is_linear=0
shrinkage=0.1


Tree=28
num_leaves=30
num_cat=0
split_feature=2 8 9 1 9 16 11 12 0 17 13 17 6 3 14 3 7 3 3 16 7 17 12 11 17 5 5 1 4
split_gain=308.011 616.876 1617.95 1262.92 1244.02 977.071 765.814 904.003 692.758 786.618 584.956 1099.75 557.463 492.882 477.51 888.932 950.086 834.446 726.753 612.753 1231.34 1196.03 762.57 687.921 838.171 798.716 534.13 371.851 219.1
threshold=32.500000000000007 0.0012233979043730001 0.011361249642413153 17.500000000000004 0.00075434744134015013 0.38085198115093993 0.06078667071036116 0.1537063864474533 29.500000000000004 0.00071423356475625011 0.082984716763535818 0.0054620087283256012 52.48807724748967 68.526400445314678 0.0023035251101350507 14.539566065117272 49.054783477604353 90.916015388119561 27.769311923188894 0.00079971935004305016 48.458516717743002 0.00111718789472395 0.00014040502286775001 -0.0019583267098378996 -0.00041314045210429995 50.681464768090102 39.303147575445188 10.500000000000002 63.864564627157243
decision_type=2 2 2 2 2 2 2 2 2 2 2 2 2 2 2 2 2 2 2 2 2 2 2 2 2 2 2 2 2
left_child=14 4 8 5 6 -4 7 -2 9 -3 11 -6 -8 -5 19 26 18 -18 -17 23 22 -22 -21 25 -25 -1 -16 -12 -10
right_child=1 2 3 13 10 -7 12 -9 28 -11 27 -13 -14 -15 15 16 17 -19 -20 20 21 -23 -24 24 -26 -27 -28 -29 -30
leaf_value=0.027876916972522276 -0.0024640312003837645 -0.049418508975971484 -0.012831842300483077 0.0081654583194898794 0.031772305892127511 0.1102670244569614 -0.11846642108682902 0.13851686255696008 -0.17984634937236788 -0.0045994520322902915 0.040251469127207992 -0.084358465013856618 0.0016877651511476299 0.086276789555839506 -0.013989608899221418 0.092067159024393885 0.0073692490250041017 0.14903328316465908 -0.0049360568158678788 -0.046547364208215369 -0.025247181767625256 0.0067726517188905593 0.084236523313736586 -0.0051223692326253486 0.0085944824637876217 -0.017710228560404603 -0.17122242386734859 0.14218314686398184 -0.080208384583930772
leaf_weight=19342.326977722347 172547.30857688375 10099.748006522655 13869.165474202484 1234.9042861759663 9960.8292893767357 676.22798442840576 981.71680116653442 456.03250980377197 378.65952670574188 6395.795265994966 729.4221168756485 888.16376370191574 636.47637671232224 2335.7952840216458 446.57194298505783 2472.8679418601096 49653.79774790071 419.30621290206909 1123.1412336230278 9526.7028987519443 16335.235482608899 40807.760366041213 467.72013157606125 102346.65091343224 78881.656241349876 4796.3686530478299 418.54909598268569 702.64327621459961 529.03351438045502
leaf_count=921 14214 554 853 81 595 17 52 15 20 316 25 71 27 98 27 115 2667 21 75 564 1336 2948 26 7750 8022 262 28 16 28
internal_value=0 -0.00286509 -0.0149456 0.00597299 -0.000569287 -0.00710887 -0.00273288 -0.00209241 -0.036721 -0.0320409 0.0301944 0.0222651 -0.0712067 0.0592625 0.00195842 0.0105001 0.0121211 0.00855553 0.0617702 0.000249037 -0.00804448 -0.00238073 -0.0404269 0.00296031 0.000848045 0.0188187 -0.0900595 0.0902643 -0.121774
internal_weight=0 222422 35519.3 18116.1 186903 14545.4 174622 173003 17403.2 16495.5 12281.1 10849 1618.19 3570.7 327039 54534.2 53669.1 50073.1 3596.01 272504 67137.4 57143 9994.42 205367 181228 24138.7 865.121 1432.07 907.693
internal_count=41744 16982 1967 1049 15015 870 14308 14229 918 870 707 666 79 179 24762 2933 2878 2688 190 21829 4874 4284 590 16955 15772 1183 55 41 48
is_linear=0
shrinkage=0.1


Tree=29
num_leaves=23
num_cat=0
split_feature=1 10 12 11 11 5 5 17 1 14 5 14 17 17 12 17 0 15 3 16 17 3
split_gain=284.873 582.991 1067.16 556.389 632.779 511.745 518.297 315.567 314.379 1171.64 1317.68 824.466 719.897 956.549 807.491 386.493 922.371 1000.1 622.502 588.26 835.843 519.98
threshold=20.500000000000004 0.051892080697705005 0.13160049835968832 0.040573150232030959 0.0031305767000997004 55.533521682700744 57.312282106879572 -0.11130630905462939 18.500000000000004 -0.0034687975594838998 34.80259770837133 -0.12579605358413906 0.00075336189906460014 0.00020755050149985001 0.005564809139478601 -0.018897783289354247 5.5000000000000009 0.067739109110972959 77.067116193257064 -0.0066952994492365994 0.0039259527884235009 34.079096058580618
decision_type=2 2 2 2 2 2 2 2 2 2 2 2 2 2 2 2 2 2 2 2 2 2
left_child=8 2 3 4 -2 -3 -7 -8 15 10 -10 -12 13 -11 -14 16 17 -1 -18 20 -17 -21
right_child=1 5 -4 -5 -6 6 7 -9 9 12 11 -13 14 -15 -16 19 18 -19 -20 21 -22 -23
leaf_value=0.0075673266615941814 -0.0080351206644061271 0.10559311226651502 -0.15414217354355025 0.089219281860937055 -0.076247370326929326 -0.11122690456093361 -0.030361038457674655 0.087866015924586163 -0.11975277079146381 0.0016318393245375986 0.010502923271245483 0.095152925246371117 0.032055770313246731 -0.05335066370020887 -0.060190514998854507 0.049014315776896376 -0.020956203035492151 0.10937205662384758 0.014832517541974496 -0.0050557861952534146 -0.0058733692999638817 0.0025890450892904239
leaf_weight=6165.7887274958193 33548.699182748795 806.65005588531494 515.40471158921719 565.16108396649361 1417.4228048324585 299.82333552837372 380.16944873332977 555.87542295455933 412.83957225084305 16042.959429960698 1755.0580381713808 3340.6748075485229 9619.3219062034041 3941.5530720818788 1052.8015133142471 5974.0257663540542 31183.593978404999 1143.9922055006027 5757.4723147600889 128064.86902311072 5180.2164064161479 291459.38289397024
leaf_count=352 2542 23 31 25 103 20 25 32 23 1404 86 144 658 400 70 281 1845 36 343 9841 292 23168
internal_value=0 -0.00833665 -0.0112816 -0.00920933 -0.0108002 0.0436366 0.00319759 0.0398488 0.000627983 0.00961561 0.0520769 0.065998 0.00198591 -0.00921238 0.0229557 -5.64131e-05 -0.00895605 0.0234999 -0.0153783 0.000857996 0.0235236 0.000255368
internal_weight=0 38089.2 36046.7 35531.3 34966.1 2042.52 1235.87 936.045 511095 36165.2 5508.57 5095.73 30656.6 19984.5 10672.1 474929 44250.8 7309.78 36941.1 430678 11154.2 419524
internal_count=41744 2801 2701 2670 2645 100 77 57 38943 2785 253 230 2532 1804 728 36158 2576 388 2188 33582 573 33009
is_linear=0
shrinkage=0.1


Tree=30
num_leaves=24
num_cat=0
split_feature=6 1 11 8 9 15 4 9 5 17 15 8 9 11 6 10 7 16 17 4 3 8 7
split_gain=275.411 654.052 676.649 627.901 770.255 694.13 608.988 776.703 792.869 1314.74 652.82 596.983 823.099 861.939 760.83 648.802 521.04 1142.5 2413.84 804.885 797.288 708.162 493.591
threshold=55.611739683854601 21.500000000000004 9.1030297294000006e-05 0.00091985779139195018 0.00053177674459770009 0.0020732868400548002 44.461190954944456 0.028239171115530506 43.183760317352146 0.37594729831807805 0.1274529699597852 -0.00011460307539314998 -0.044754759072227444 -0.0019583267098378996 45.999343875031208 0.0047940602024354002 54.690383499312468 0.17327843542106078 0.0025718251865780501 68.010321859536106 69.950613431509467 0.00067974207729880017 44.202000844275851
decision_type=2 2 2 2 2 2 2 2 2 2 2 2 2 2 2 2 2 2 2 2 2 2 2
left_child=6 16 -3 4 -4 -5 7 8 10 -10 -1 12 -8 -14 22 -16 17 18 -2 21 -21 -18 -13
right_child=1 2 3 5 -6 -7 11 -9 9 -11 -12 14 13 -15 15 -17 19 -19 -20 20 -22 -23 -24
leaf_value=0.0006554616992857339 -0.0046671230887615602 -0.17565270089020493 -0.038627615317030885 -0.14218495931306413 0.055812121720550237 -0.0049187796656624391 -0.10350335222883485 0.09076793074611049 -0.0083112557241641054 -0.081248590307546498 0.039041374880582125 -0.12116905122823246 0.078830515501569831 0.017064039951194376 0.0091672602792603856 -0.008549182757097434 0.00016732526204230711 0.11568415056189628 -0.083929549482235813 -0.092796368783850308 -0.0065716191128966364 0.025481657146067056 -0.023717168509881134
leaf_weight=163474.13783556223 85229.835136640817 330.22315776348114 2568.1604000031948 855.02063378691673 1301.1907831430435 647.28405141830444 519.23835074901581 905.5907678604126 66895.516936667264 2566.1794442236423 4553.8855824694037 600.79927179217339 2535.8034155964851 20718.613063482568 93053.694425515831 26574.045839317143 23070.635289985687 750.20187282562256 4023.5241247862577 1128.3311498314142 21628.631684299558 21211.245379149914 3852.2768485322595
leaf_count=12539 6868 26 225 53 82 35 31 25 5054 124 226 47 140 1477 7767 1651 2072 26 268 64 1476 1083 385
internal_value=0 -0.00344409 -0.0367141 -0.0281728 -0.00686929 -0.0830424 0.00146033 -0.00166675 -0.00201922 -0.0110058 0.00169579 0.00650232 0.021019 0.0237994 0.00372094 0.00523174 -0.00223612 -0.00720732 -0.00824026 0.00443799 -0.0108468 0.012293 -0.0368652
internal_weight=0 162744 5701.88 5371.66 3869.35 1502.3 386250 238395 237490 69461.7 168028 147854 23773.7 23254.4 124081 119628 157042 90003.6 89253.4 67038.8 22757 44281.9 4453.08
internal_count=41744 12278 421 395 307 88 29466 17968 17943 5178 12765 11498 1648 1617 9850 9418 11857 7162 7136 4695 1540 3155 432
is_linear=0
shrinkage=0.1


Tree=31
num_leaves=29
num_cat=0
split_feature=1 9 6 10 8 14 16 2 10 3 4 7 11 0 8 1 13 5 3 5 4 9 10 7 9 16 17 6
split_gain=285.658 524.498 848.406 903.287 847.456 652.196 1466.26 593.182 523.322 509.36 1273.56 776.5 375.794 320.451 1874.45 1148.57 817.117 1214.44 850.079 756.765 755.98 708.538 1771.37 1561.24 935.653 693.644 509.366 318.56
threshold=9.5000000000000018 -0.011588190000429597 52.971741321512731 -0.0048003790347615491 -0.022394150860961245 0.19101174922565176 0.055399985160882105 12.500000000000002 0.028018463861897602 27.041204105512268 37.976233527409711 50.345495655784781 0.034920285876956107 26.500000000000004 -0.0014138696937576998 19.500000000000004 -0.0012085792810830498 40.335031938474366 21.804143814591793 47.314491453790431 30.199542638900692 -0.0017067990526583498 -0.0020417000177745492 54.690383499312468 -0.0019878090448051497 0.54358018780220629 0.0019876464390139004 51.542220245219745
decision_type=2 2 2 2 2 2 2 2 2 2 2 2 2 2 2 2 2 2 2 2 2 2 2 2 2 2 2 2
left_child=1 2 3 7 9 6 -6 -1 -4 10 -3 -11 -7 21 15 20 18 -18 -16 -17 -15 22 24 -24 -2 26 -23 -5
right_child=13 4 8 27 5 12 -8 -9 -10 11 -12 -13 -14 14 16 19 17 -19 -20 -21 -22 25 23 -25 -26 -27 -28 -29
leaf_value=0.048624497096815274 -0.0035100862280482239 -0.10285940804389365 -0.13386507492340477 0.049904667722184132 0.003736715873615939 0.10093342509089918 -0.055797811582396412 0.0049817666613502197 0.018104743350636984 -0.020681806841341466 0.073635270752485313 -0.16485418367270724 0.016064247952993844 -0.033387058834823062 0.19217832941918497 -0.091666445783807254 -0.056133790589710957 -0.0013069763154572977 0.022125669390334411 0.063580833017045577 0.07755114026476144 -0.0030838506788792349 -0.1050972930327015 0.060794969613207309 -0.077072962787263569 0.092765826815094377 0.0084237881129845503 0.14173106536368685
leaf_weight=4400.1858742572367 29013.332170454785 788.59717340767384 560.82561159133911 711.08699202537537 132094.78697744384 1036.1706581115723 4270.6365111470222 10657.165831029415 380.22377777099609 754.18353896588087 849.00748133659363 740.24579286575317 1050.8749682307243 682.50681181997061 307.14060306549072 852.72648501396179 4514.7067234516144 38429.754068003967 6851.5328537747264 496.98655867576599 6142.3454217463732 250239.30128533207 3438.06339282915 679.41245555877686 1838.5764305591583 785.75385141372681 45450.409064875916 806.03359913825989
leaf_count=237 1641 66 33 25 10379 34 300 613 14 32 29 43 56 45 16 50 423 3160 365 23 293 20936 211 28 86 19 2568 19
internal_value=0 0.00357718 0.0199014 0.0251456 0.0015577 0.00272133 0.00187224 0.0177354 -0.0724628 -0.0498808 -0.0113567 -0.0920957 0.0581999 -0.00145118 0.00538727 0.0497875 -0.00185685 -0.00707086 0.0294217 -0.0345018 0.066457 -0.00265358 -0.0161161 -0.0777239 -0.00789396 -0.00106567 -0.00131501 0.0986913
internal_weight=0 159100 17515.5 16574.5 141585 138452 136365 15057.4 941.049 3132.03 1637.6 1494.43 2087.05 389723 58277.7 8174.57 50103.1 42944.5 7158.67 1349.71 6824.85 331445 34969.4 4117.48 30851.9 296475 295690 1517.12
internal_count=41744 11880 941 894 10939 10769 10679 850 47 170 95 75 90 29864 4375 411 3964 3583 381 73 338 25489 1966 239 1727 23523 23504 44
is_linear=0
shrinkage=0.1


Tree=32
num_leaves=28
num_cat=0
split_feature=0 0 13 17 16 17 5 0 5 10 9 13 1 2 8 17 9 0 15 0 2 9 15 15 3 13 11
split_gain=284.91 743.609 947.091 630.132 1080.66 1621.91 875.519 822.457 600.59 596.354 998.732 726.155 585.72 581.217 568.504 548.093 484.116 743.829 411.562 929.273 1301.77 791.433 664.007 1024.17 779.008 344.555 241.227
threshold=29.500000000000004 28.500000000000004 -0.0010629864847234497 0.0093373478894844021 0.0039528292156361501 0.0019227387722536504 56.417576713820914 30.500000000000004 42.22617572567956 0.0011195497406262002 0.00034280671245885008 0.00069731929382355008 7.5000000000000009 47.500000000000007 0.040082355872904353 0.0036759802679786004 -0.0070738271972671492 30.500000000000004 -0.20638853922068215 6.5000000000000009 1.0000000180025095e-35 0.045854240393156359 -0.087465882619906829 -0.066250073467882489 65.831942942917692 0.010764478455799701 -0.0011323824718329496
decision_type=2 2 2 2 2 2 2 2 2 2 2 2 2 2 2 2 2 2 2 2 2 2 2 2 2 2 2
left_child=1 18 12 4 5 6 -2 15 -7 10 -4 -11 26 -14 16 -6 17 -5 19 21 -21 -1 24 -24 -20 -18 -3
right_child=3 2 9 14 7 8 -8 -9 -10 11 -12 -13 13 -15 -16 -17 25 -19 22 20 -22 -23 23 -25 -26 -27 -28
leaf_value=0.054286222202366931 0.011275411310170643 -0.05731544242806861 0.0071189842991590223 0.0091728919027270189 -0.079396915928408862 -0.19724508200672136 -0.03420472998410419 0.12898829287473276 -0.067431894512277782 0.06658149434227166 0.092881146917223253 -0.058656683440549917 0.10913725883881849 -0.020454339806820973 0.045719601408036464 0.059298605407410367 -0.18044820076220244 -0.1558450819066711 -0.0040851020219599011 -0.16016175328525276 -0.022426835828507852 -0.058086659657333999 -0.048826415737900336 3.6717588613980928e-05 0.038135940098337505 -0.054408479837581583 0.051461618141182976
leaf_weight=2637.5556879490614 13443.671790122986 439.62150764465332 9343.5203430671245 955.52065299451351 461.36726069450378 468.24100071191788 6177.8408930413425 997.45010042190552 1492.1638154387474 586.59507793188095 1588.7570530772209 2196.8470342922956 2297.6148279681802 407.46166527271271 458.89243853092194 745.02545046806335 567.5246946811676 382.50254583358765 7882.2252195626497 739.36128112673759 9541.7443203292787 822.09495854377747 4329.1246154569089 469027.27772571519 9807.386158645153 351.0553867816925 380.16601741313934
leaf_count=97 1146 24 828 60 26 31 506 34 94 34 121 128 109 21 20 34 30 25 458 40 447 36 302 36588 462 22 21
internal_value=0 0.000520563 0.0209428 -0.010108 -0.00489784 -0.0117092 -0.00304403 0.0618044 -0.0984377 0.00906103 0.0195826 -0.0322634 0.0671765 0.0896171 -0.0557449 0.00625653 -0.0763783 -0.038001 -0.000176943 -0.0172464 -0.032332 0.0275838 0.000300705 -0.000410165 0.0193229 -0.132279 -0.00687147
internal_weight=0 522027 17240.6 26501.3 23785.8 21581.9 19621.5 2203.84 1960.4 13715.7 10932.3 2783.44 3524.86 2705.08 2715.5 1206.39 2256.6 1338.02 504787 13740.8 10281.1 3459.65 491046 473356 17689.6 918.58 819.788
internal_count=41744 39716 1286 2028 1871 1777 1652 94 125 1111 949 162 175 130 157 60 137 85 38430 620 487 133 37810 36890 920 52 45
is_linear=0
shrinkage=0.1


Tree=33
num_leaves=30
num_cat=0
split_feature=15 17 9 6 14 12 12 3 10 3 8 7 17 14 0 7 14 5 1 17 0 17 12 17 2 16 4 8 8
split_gain=261.132 624.973 1011.67 1163.6 1993.26 907.509 788.985 838.484 769.534 712.78 786.751 714.938 665.955 632.64 593.69 936.59 906.886 1229.33 580.755 575.523 499.938 465.388 524.363 728.969 494.504 771.613 566.606 418.881 244.792
threshold=-0.00040072048546544993 -0.00063003221977379995 0.024980947964785002 52.736155895393843 -0.10886601328081009 -0.010046962992035348 0.0010782006107212503 66.52709848223121 0.011605901732039502 20.905060781739653 -0.11773299378567963 46.265638116272562 -0.44657149788665246 0.051516842185542054 30.500000000000004 55.502569520621051 0.00011427554339205001 40.002863170195198 16.500000000000004 0.0013900452165476502 27.500000000000004 -0.0016252205074873498 0.27237931467868753 -0.24159392649040887 1.0000000180025095e-35 0.26238262701127729 69.376427992895387 0.0004910586506155501 -0.0021664118370888497
decision_type=2 2 2 2 2 2 2 2 2 2 2 2 2 2 2 2 2 2 2 2 2 2 2 2 2 2 2 2 2
left_child=1 9 6 4 -4 -5 8 -8 -3 11 12 20 -11 -12 21 16 17 -16 27 -18 -1 22 23 -2 25 -23 -26 -17 -13
right_child=14 2 3 5 -6 -7 7 -9 -10 10 13 28 -14 -15 15 18 19 -19 -20 -21 -22 24 -24 -25 26 -27 -28 -29 -30
leaf_value=-0.022981695201716307 0.047613094278655239 0.013838091547883785 -0.16812510157302507 0.12482006281108321 0.050222702340858433 -0.024045647591414861 0.019878560028640063 0.12973160779123305 -0.096878728715448434 0.12437632773845993 0.0013331477483390711 -0.043393203282836607 0.0094232690156196477 -0.064161583691150478 -0.13063215632869948 0.091418964877785572 -0.042810723328243462 0.041016386845470251 0.15421475293560313 -0.12257533188039189 0.048743895033943885 0.015589419181525833 -0.091529229325764988 -0.015852343098254562 -5.0424946087832598e-05 -0.08145153903882886 -0.018367959433407736 -0.060006004852793907 -0.14654186613501649
